#Parameter# /vanilla-lstm-builder/_0 {128,32} 65537 ZERO_GRAD
+4.08124179e-02 -1.39490683e-02 +2.89745405e-02 -8.43294635e-02 +1.26620978e-01 -4.84814085e-02 +3.13458294e-02 +6.03274554e-02 +4.26115431e-02 +1.47043541e-01 +1.37968108e-01 -3.04321945e-03 +3.36090356e-01 +1.65709347e-01 +1.81902587e-01 +3.38678844e-02 +1.08684734e-01 +1.11789033e-01 +1.02428801e-01 -6.91465139e-02 +1.59515887e-02 +8.79542381e-02 +1.02489404e-01 +2.96169430e-01 -1.01221234e-01 -4.71661054e-02 +1.74197078e-01 -1.16137572e-01 +2.15450495e-01 +2.96728630e-02 +1.40109882e-01 +2.56154984e-01 -1.63918734e-01 +3.04679852e-02 -1.38630792e-01 +1.79331347e-01 +8.54382515e-02 -1.16002940e-01 -6.19117403e-03 +1.74531639e-01 +8.67358074e-02 +1.98597327e-01 -8.38309228e-02 -1.05930306e-01 -1.38617054e-01 +1.98265389e-01 +1.88983411e-01 +4.72478606e-02 -7.38977566e-02 +1.62861243e-01 +6.17634766e-02 -7.82744139e-02 +3.04610748e-02 -4.26869169e-02 +9.47870016e-02 -1.49092674e-01 +3.38569796e-03 -2.00372696e-01 +1.80577859e-01 -5.70229702e-02 +1.65674835e-01 +1.76892653e-01 +1.79194868e-01 +1.00400694e-01 +1.31574646e-01 +9.23211724e-02 +1.82276756e-01 +8.14219639e-02 +1.88416034e-01 +1.43308327e-01 +1.47478348e-02 +2.97523469e-01 +2.76082724e-01 -9.82792825e-02 -1.14913724e-01 +2.32481465e-01 +8.54549110e-02 -1.38854589e-02 +1.74434915e-01 +1.57359213e-01 +3.24663848e-01 +1.61391512e-01 -8.77704844e-02 +1.33006379e-01 +1.58459209e-02 +3.43764752e-01 -8.99462029e-02 +1.25464082e-01 +3.38336527e-02 -1.35037052e-02 +3.87942754e-02 +2.64107455e-02 +1.59676835e-01 +1.07020929e-01 +3.11283886e-01 +5.32263629e-02 +1.10659786e-01 -1.77852944e-01 -9.95361283e-02 -1.12268925e-01 +2.77370960e-01 +4.77182381e-02 +1.34533998e-02 -1.05026988e-02 -2.04895243e-01 -1.38961775e-02 -1.63782701e-01 -5.19862063e-02 -1.19454354e-01 -4.27020108e-03 +2.08991114e-02 +1.86811194e-01 -2.69794047e-01 +9.90945697e-02 +8.91258866e-02 -2.55433142e-01 +7.34167248e-02 -1.65673755e-02 +4.06452119e-02 +2.83136874e-01 -1.45525157e-01 +2.24526182e-01 -1.31660879e-01 -6.89794421e-02 +2.57790983e-01 -2.85781652e-01 +7.71682858e-02 +3.02466955e-02 +1.35006413e-01 -1.16823077e-01 +2.52065044e-02 +9.39418823e-02 -1.34896606e-01 +9.12142098e-02 -2.11060002e-01 -7.73573741e-02 -2.12817527e-02 -2.28427798e-01 +1.31186709e-01 +1.63371906e-01 +1.76445991e-02 -1.77459076e-01 -8.08903351e-02 +4.78245392e-02 -3.93776298e-02 +4.14318312e-03 -1.43324628e-01 +3.16902339e-01 +3.20469327e-02 -3.50623488e-01 +1.03895053e-01 +1.31112877e-02 -9.38790217e-02 +1.13314748e-01 +1.17192127e-01 +1.05150491e-01 +8.66872445e-02 -8.14865455e-02 -2.01321915e-01 -8.53566080e-02 +1.22049093e-01 -1.62335768e-01 -7.59895220e-02 -1.71018198e-01 -1.01090379e-01 +1.84890375e-01 -2.98221856e-02 -1.50583759e-01 -2.52865050e-02 +4.91314381e-02 -9.33880806e-02 +2.09837575e-02 -4.85155247e-02 +1.19004436e-01 -6.72247559e-02 -4.39710841e-02 +1.46710172e-01 -2.41632015e-02 -1.54529646e-01 -2.66862959e-02 -1.64695814e-01 +7.54614845e-02 -4.79718298e-02 +5.53285256e-02 -1.55794770e-01 +1.41627192e-01 +1.49114370e-01 +1.15299299e-01 +1.30535498e-01 +1.02029860e-01 -7.47083202e-02 -1.60813466e-01 -1.61137030e-01 -8.66328925e-02 -2.56973714e-01 +1.49619237e-01 -1.73737958e-01 +3.99537459e-02 +9.08793807e-02 -2.75920369e-02 -3.18733960e-01 -1.70319185e-01 -5.62686380e-03 -4.62042615e-02 -1.21705748e-01 +8.32230151e-02 +6.40935153e-02 -1.28778756e-01 -2.25629434e-02 -1.51560694e-01 -1.01757757e-01 +9.75467414e-02 -2.76053071e-01 -3.76877904e-01 +1.20312892e-01 -1.58644214e-01 -8.15376192e-02 -1.47257522e-01 -6.54678866e-02 +2.30718970e-01 +8.96768421e-02 +9.83780399e-02 -2.98267573e-01 +1.90425315e-03 -2.50898600e-01 -2.05607358e-02 -2.13180035e-01 -3.86496574e-01 +1.11382924e-01 -2.11280445e-03 +1.43798128e-01 +1.35623917e-01 -1.03628911e-01 -1.31043896e-01 +1.66646630e-01 -1.93159599e-02 -4.16736275e-01 +9.78987813e-02 +9.23601985e-02 +2.50303060e-01 +1.21164501e-01 -1.03922471e-01 -2.98798352e-01 -1.11540124e-01 -1.12322895e-02 +2.42093012e-01 +1.88106880e-01 +4.89829518e-02 -1.83649242e-01 -1.28251091e-01 -1.47662103e-01 +2.57349089e-02 +2.66454965e-01 -1.95567086e-02 +1.98098511e-01 +1.81880772e-01 +8.55799951e-03 +8.97502601e-02 -3.63679044e-02 -1.08305231e-01 +4.06353772e-01 -3.18608344e-01 +6.81293607e-02 -9.69695672e-02 +1.56139106e-01 -3.87089676e-03 -1.00561485e-01 +1.16823316e-02 +9.88202170e-02 +2.33243480e-02 +2.83207232e-03 +7.43561164e-02 +6.70801178e-02 +4.35741469e-02 -1.69818416e-01 -3.60003859e-01 +1.27543926e-01 +3.36214721e-01 -6.09141663e-02 -7.47683793e-02 -4.27937955e-02 -1.29679069e-01 +2.79000308e-03 -3.56247723e-01 -3.27630281e-01 -7.55923092e-02 +2.26047903e-01 +2.86361724e-02 -7.43618384e-02 -1.07948773e-01 +9.15270373e-02 -1.03833713e-02 -1.08678667e-02 +1.49237178e-02 +9.55813825e-02 +7.32903555e-02 -1.09596699e-01 +1.85239419e-01 -3.78126577e-02 -6.00933135e-02 -1.61049783e-01 -1.68525577e-01 +1.88828651e-02 -1.67828575e-01 +6.24952279e-02 -1.26100421e-01 +1.61980510e-01 +2.25630045e-01 +1.51031151e-01 +1.49037436e-01 -7.90649801e-02 +4.28568982e-02 +7.41485506e-02 -1.30900592e-01 +1.75757870e-01 +1.04975186e-01 +1.61828279e-01 +1.39987737e-01 +1.61303386e-01 +9.21688825e-02 -2.12809920e-01 -6.71039224e-02 +1.63032621e-01 -1.09676205e-01 +6.62916005e-01 -1.84670612e-02 +1.75489798e-01 -1.49851859e-01 +9.36285108e-02 +2.35953629e-01 +4.04877961e-02 +1.82605922e-01 +4.92327064e-01 -1.12220697e-01 -2.37230092e-01 +5.88919744e-02 +2.40145490e-01 +6.98808283e-02 +2.08090603e-01 -3.18596691e-01 +1.51138812e-01 +2.80113161e-01 -8.46366957e-02 +5.07865772e-02 -5.96538838e-03 +8.09401125e-02 +1.98786378e-01 +2.76261736e-02 -1.29248900e-02 -2.53107399e-01 +9.07837525e-02 -2.06524029e-01 +1.49190098e-01 -8.59349519e-02 +3.30242842e-01 +3.43499720e-01 -5.21648586e-01 +1.88911289e-01 -2.07006540e-02 -1.60573259e-01 +1.84481472e-01 -2.13042414e-03 -2.71601617e-01 +1.25517786e-01 +6.40322089e-01 -1.10038429e-01 -7.65453950e-02 -8.56080949e-02 +1.32181626e-02 -1.61679182e-02 +5.99507242e-02 +2.48375550e-01 -4.32842076e-01 -3.64490390e-01 -2.46378839e-01 -1.85832292e-01 +4.11582272e-03 +2.27488086e-01 -1.93100348e-01 +2.09426910e-01 -5.41468501e-01 -8.63628555e-03 -1.20415151e-01 -2.64142513e-01 +1.61486194e-02 -1.28250778e-01 -2.14312151e-01 +1.97642386e-01 -3.29497606e-01 +1.98810682e-01 -5.26373051e-02 -6.63525015e-02 -3.25210035e-01 -2.37763345e-01 +5.53300753e-02 -2.14728177e-01 -3.28442693e-01 -9.79923904e-02 +7.93344975e-02 +1.38029158e-02 -2.44793117e-01 +6.62204344e-03 +1.03258505e-01 +1.13059573e-01 -2.36499250e-01 -1.02869064e-01 +1.01070285e-01 -2.44160444e-02 -4.84761745e-02 +6.74086660e-02 -5.41497096e-02 +1.54144475e-02 +1.63639471e-01 -1.27433479e-01 -8.18778723e-02 +1.98501259e-01 -1.57044902e-01 +9.58231103e-04 +1.16188247e-02 +6.02952652e-02 -1.65019453e-01 +3.34992111e-02 -3.67067382e-02 +1.88360587e-01 -1.44548550e-01 +9.92006958e-02 +2.33599730e-02 +1.33479491e-01 -1.88653216e-01 -1.65000036e-01 -1.49369061e-01 +1.45622537e-01 +5.59048541e-02 +1.31359607e-01 +1.31071433e-01 +9.42430645e-02 -6.74521923e-02 -1.81795195e-01 +1.06100708e-01 +1.38311654e-01 +1.03428729e-01 -1.42550841e-01 +1.31941855e-01 -1.36404455e-01 +6.41632900e-02 -9.85662937e-02 +9.80809703e-02 +4.11371179e-02 +7.25992918e-02 +1.79542631e-01 -1.88811198e-01 +2.19782695e-01 -5.37661910e-01 +1.66140825e-01 -1.12169981e-01 +1.78231373e-01 -3.76783371e-01 -1.07850388e-01 -1.79779008e-02 -2.69100666e-01 -3.48842502e-01 -2.59896368e-01 +1.43761307e-01 -5.97277097e-02 -2.35036746e-01 -1.56369865e-01 -1.18401207e-01 -7.50472322e-02 -1.93817332e-01 -1.45861983e-01 +1.35532185e-01 -3.38286817e-01 +1.59675088e-02 +1.50055960e-01 +9.16349143e-02 -2.25746818e-02 +1.76277012e-02 -5.49450144e-02 -7.90775493e-02 +2.22830996e-01 +1.99299194e-02 +1.61941543e-01 -1.68217301e-01 -3.40400279e-01 +4.41658795e-01 -2.12131083e-01 +1.03402622e-01 +3.65794301e-01 -8.15047398e-02 -7.24742115e-02 +2.74833083e-01 -3.31759989e-01 -1.85642093e-01 -2.56582350e-01 +2.07727283e-01 -5.92400245e-02 -6.69412315e-02 -1.12641916e-01 -1.86973020e-01 -1.74558356e-01 +1.07326984e-01 +2.91224509e-01 +1.48253307e-01 +3.93191993e-01 -7.05299079e-02 +9.51997861e-02 -7.55251274e-02 +1.08459376e-01 +1.13109432e-01 +9.24891904e-02 +1.86203048e-01 +1.35354072e-01 +7.75716379e-02 -1.45409361e-01 -1.73528999e-01 +7.20882639e-02 -1.20553024e-01 -2.00828716e-01 +1.62737474e-01 -2.00587690e-01 -1.56607181e-01 -9.77508053e-02 +1.42358765e-01 -1.78178966e-01 -7.28712603e-02 +1.26931623e-01 +7.92750791e-02 -1.97236970e-01 -1.46758687e-02 +4.02315557e-02 +1.56823754e-01 -2.91665848e-02 -1.08683862e-01 -1.63415581e-01 -1.74288169e-01 -8.50471407e-02 +1.83726680e-02 +1.39564704e-02 -6.80351630e-03 -1.21651806e-01 -2.87517458e-01 -6.19068332e-02 -7.86811206e-03 -8.52638036e-02 -4.66224886e-02 +8.93154666e-02 -5.74268810e-02 -5.61031923e-02 -6.08996898e-02 -6.27959967e-02 +6.06133463e-03 -4.51899841e-02 -1.86597273e-01 +1.38812095e-01 +6.06770217e-02 -8.37831721e-02 +1.37763873e-01 +1.06952377e-01 -3.07444334e-02 +1.48551852e-01 +1.17628537e-01 -1.45958155e-01 +3.87142263e-02 +1.82960443e-02 -1.26957580e-01 +7.79216513e-02 +2.73030940e-02 +1.25870869e-01 +9.88062471e-02 +1.30824558e-02 +8.08062032e-02 +1.84203476e-01 +1.57042131e-01 -1.81613848e-01 +7.07136691e-02 +5.51942326e-02 -2.17274264e-01 -2.33704254e-01 -7.20998198e-02 -2.48685911e-01 -1.76662132e-01 +3.83110717e-02 +9.47336555e-02 -1.53962031e-01 -3.05047423e-01 -2.81737354e-02 -1.04009569e-01 -2.48278961e-01 -2.59324193e-01 +6.08985834e-02 -5.23162931e-02 -8.42435136e-02 +3.38587239e-02 -1.81699112e-01 +2.08863333e-01 -2.11617127e-01 -1.13317035e-01 -7.54130026e-03 -1.29284874e-01 -3.08541805e-01 -1.42330945e-01 -7.08972439e-02 -4.82359752e-02 +1.30060926e-01 -1.54143453e-01 -1.22029364e-01 -4.24051471e-03 -1.62900656e-01 +1.11805007e-01 -7.47262081e-03 +1.52234077e-01 +2.19281927e-01 -4.24531162e-01 +1.31941959e-01 -2.55087405e-01 -1.63341746e-01 +4.84054863e-01 -4.48683761e-02 -2.55358219e-01 +3.26457918e-01 +3.47963572e-01 -9.89384856e-03 -2.11223066e-01 -1.67246133e-01 +2.98226535e-01 -5.60163185e-02 +1.92731380e-01 +1.61045834e-01 -1.23765968e-01 -9.94171202e-02 -9.74741131e-02 -3.01105082e-01 -6.59366399e-02 +4.32669744e-02 +2.54903883e-01 -1.61520943e-01 -3.26631814e-01 +4.27746028e-01 -2.32961535e-01 -2.25548178e-01 +4.75821970e-03 +1.57319486e-01 +1.74946506e-02 +2.77083308e-01 +7.61072636e-02 +5.65104708e-02 -1.04971737e-01 -7.50649944e-02 +3.25508326e-01 +1.19585969e-01 +5.14679775e-02 -1.28724650e-01 +2.04678383e-02 +9.10728574e-02 -6.27187937e-02 -4.40904573e-02 -7.56495893e-02 -6.95232004e-02 +2.31109738e-01 +2.38720030e-01 +1.97903037e-01 +1.70518875e-01 -1.28390402e-01 +3.22156660e-02 +5.98593056e-02 -1.06652528e-01 +3.90880799e-04 +1.11516580e-01 +3.19899946e-01 -1.83007568e-01 +1.02084197e-01 -1.25779495e-01 +1.83328733e-01 +1.18637830e-01 +1.16164632e-01 +7.78928921e-02 -1.24048293e-01 -4.73785475e-02 +6.76905215e-02 -2.00213641e-02 +6.81023374e-02 -2.24693567e-01 +3.32769603e-02 +3.06917969e-02 +4.51013222e-02 +3.85654643e-02 -1.05035705e-02 -6.39546439e-02 -1.17960712e-02 -2.60758237e-03 -4.95545529e-02 +3.91238034e-02 -9.95512828e-02 -7.89019540e-02 -8.36922321e-03 +3.67012210e-02 +4.39117476e-03 -1.22000262e-01 +9.82075557e-03 -2.95935031e-02 +7.03248978e-02 +1.10049173e-01 +5.24892993e-02 -1.65024623e-01 +4.09774389e-03 +1.48927659e-01 +1.32215306e-01 +2.57657975e-01 -5.77241555e-02 +1.42506406e-01 -4.13514301e-03 -1.11711975e-02 -1.98474471e-02 -1.35083124e-01 +2.03381926e-01 +7.48575330e-02 -1.24001116e-01 +5.55226346e-03 +1.37004316e-01 +3.16220522e-02 -2.31472433e-01 -3.38272713e-02 -1.84583247e-01 +2.21925035e-01 -1.78950697e-01 +4.91636712e-03 +7.84240961e-02 -1.65521502e-01 -3.75971477e-03 +3.43561172e-02 -2.29996279e-01 +2.10667923e-01 +1.38416290e-01 +2.06417903e-01 -1.29942477e-01 -3.79363596e-02 +1.51866838e-01 +8.74527916e-02 -1.32521674e-01 -5.92302270e-02 +1.28260434e-01 -1.19420432e-01 +8.42860192e-02 +5.31372167e-02 -2.40651920e-01 -1.75783709e-01 -7.91464373e-03 +4.07463402e-01 -5.18386215e-02 +2.56224126e-01 +1.28146112e-01 -1.75256535e-01 -1.91028863e-02 -1.71645135e-01 +8.05631727e-02 -2.33173430e-01 +5.37001006e-02 -4.46521416e-02 +3.49646688e-01 +8.56531039e-02 +4.85419258e-02 -1.23984575e-01 +2.52415329e-01 -2.38354191e-01 -5.15319631e-02 +2.31539775e-02 +3.97348404e-02 -2.09825411e-02 -2.05003262e-01 -1.02493092e-01 -1.71671838e-01 -3.48962218e-01 -2.75365829e-01 -1.45452440e-01 +2.21444994e-01 -3.49561155e-01 -2.21107870e-01 -1.72225043e-01 +1.01604857e-01 -8.17780048e-02 -1.37643009e-01 -1.80058181e-01 -1.08984224e-01 -2.18227193e-01 -1.88384116e-01 -1.33983523e-01 -5.62999398e-02 -4.69422340e-01 -2.08821446e-01 -4.90055084e-02 -2.15809256e-01 -2.53462613e-01 -1.54789329e-01 -2.10218102e-01 -8.37667137e-02 -1.15688004e-01 -2.75609672e-01 -2.92964697e-01 -1.33485332e-01 -4.78256553e-01 +9.90131497e-02 +1.07441045e-01 -1.46009311e-01 -1.31438434e-01 -1.89712271e-01 -1.41228721e-01 -3.92756313e-02 +6.02859035e-02 -5.77569939e-02 -1.77514672e-01 +6.72556758e-02 -5.68123572e-02 -6.44224882e-02 -4.44159470e-02 -1.31209999e-01 -1.12664394e-01 +8.29463378e-02 +5.49684055e-02 -1.82015434e-01 +1.36181712e-01 -4.59385552e-02 +1.23383000e-01 +1.42894134e-01 +8.22896957e-02 -1.88336466e-02 -1.16148241e-01 +7.99560100e-02 -8.67883787e-02 +2.11903583e-02 -1.31992266e-01 -1.08362958e-01 -7.28261098e-02 -1.35970548e-01 -1.91427216e-01 -2.64963418e-01 -1.07365265e-01 -2.10382715e-01 -1.12613790e-01 -1.01956867e-01 -3.53415906e-01 -1.42396227e-01 +1.19559988e-01 +9.50930044e-02 +1.66873168e-02 -4.03449647e-02 -1.05181515e-01 +8.74879733e-02 -2.82368422e-01 -1.23842061e-01 -1.74117520e-01 +2.65334249e-01 -4.96312916e-01 -1.93377249e-02 +5.81986308e-02 -2.93876678e-01 +4.81818104e-04 -1.95824713e-01 -8.01235214e-02 -3.08324665e-01 +8.83704871e-02 -3.17337930e-01 -8.12861398e-02 -1.00644469e-01 -6.40867352e-01 +3.49486589e-01 +1.48770764e-01 +4.11333710e-01 +2.39410073e-01 -7.44043231e-01 -1.47873461e-01 -5.38210511e-01 -3.99258822e-01 +5.65599501e-01 +1.20248981e-01 -9.74533055e-03 +4.53572303e-01 +3.95078719e-01 +4.07948226e-01 -2.12038204e-01 -5.26390135e-01 +3.23353440e-01 -3.44477981e-01 +1.03516683e-01 +2.61237621e-01 -3.68733048e-01 -5.84631622e-01 +3.81339133e-01 -3.80652428e-01 +3.83522153e-01 -4.47249234e-01 +3.49841297e-01 -2.43886769e-01 -6.30288661e-01 +2.10977420e-01 -6.21866763e-01 -3.79685611e-01 -1.59345537e-01 +4.66899723e-02 -1.33368775e-01 -1.49657428e-02 +9.24643800e-02 +1.13511039e-02 +1.24891818e-01 +6.55304044e-02 -6.81005418e-02 -2.04510987e-01 +7.02519119e-02 -1.50488570e-01 -8.91504362e-02 +1.86206922e-01 +1.51052261e-02 +1.25943288e-01 +1.62236914e-01 -1.96833745e-01 -5.71591556e-02 -1.83470920e-02 +6.47695959e-02 -8.13010409e-02 -1.53688788e-01 +2.17742734e-02 +1.02441385e-01 +1.14113808e-01 -8.29459876e-02 -2.14378107e-02 -3.87939662e-02 -8.23126808e-02 -1.34871706e-01 -2.69368682e-02 -1.72503382e-01 +1.90395638e-01 -9.26125422e-03 +1.08533666e-01 -4.87984791e-02 +7.56457373e-02 +1.63253143e-01 -1.91019773e-01 +5.02016693e-02 -4.26952802e-02 +4.80293762e-03 -1.34706706e-01 -1.57563370e-02 -3.41031402e-02 +9.79862874e-04 +1.82968527e-02 -1.44199401e-01 +1.89978145e-02 -8.82700924e-03 -1.43536747e-01 -1.12871036e-01 +8.28095376e-02 +1.59597754e-01 -1.91458479e-01 +5.78723922e-02 +1.31229237e-01 +3.65304500e-02 -1.84278548e-01 +1.50422156e-01 -1.04496554e-01 +3.21851075e-02 -1.83748633e-01 -1.03839248e-01 -1.36766568e-01 -9.54514295e-02 -2.14408964e-01 -1.09347411e-01 +1.73916340e-01 -2.43421301e-01 -1.12696968e-01 -7.59667307e-02 +9.65363532e-02 +1.91035315e-01 +9.79411975e-02 -5.55381700e-02 +9.25922543e-02 -1.00274004e-01 +1.48268446e-01 -1.74990937e-01 +2.52470188e-03 +1.11586034e-01 +4.30817157e-02 +4.90038283e-02 -1.60614386e-01 +1.91614464e-01 +2.55886782e-02 -1.77589297e-01 -1.12336591e-01 +7.34344451e-03 +2.93226875e-02 -1.68769896e-01 +4.87159602e-02 -2.00605586e-01 -1.18753232e-01 -6.80899471e-02 +1.73398241e-01 +1.44557402e-01 +2.45254099e-01 -3.27042073e-01 +7.31440634e-02 -3.12501758e-01 -2.84332037e-01 +2.36111671e-01 +6.11135289e-02 -1.08506270e-01 -2.55329728e-01 +3.43880922e-01 +1.93764329e-01 -2.01760247e-01 -2.89091974e-01 +1.33409396e-01 +1.22396030e-01 +4.00454737e-02 +3.08775663e-01 -2.96776146e-01 -2.34258309e-01 -2.36296982e-01 -4.67746317e-01 +1.95439041e-01 -1.11072570e-01 -2.65446573e-01 +3.29365581e-02 -2.02874154e-01 +8.91551301e-02 -3.05215180e-01 -5.25644720e-01 -1.57731265e-01 -1.71046942e-01 -7.43505657e-02 +2.73035169e-01 -3.92903954e-01 +1.67547017e-01 -2.74511456e-01 -2.05280289e-01 -5.63259088e-02 +5.39569892e-02 +4.81656566e-02 -3.94878164e-02 -2.83786982e-01 -6.87633678e-02 +1.90817207e-01 -1.89807028e-01 -1.36534557e-01 +9.20550302e-02 -8.72231349e-02 +1.64684743e-01 -3.35895941e-02 -5.44669703e-02 +1.85611084e-01 -1.40703768e-01 -1.42437890e-01 -5.30932248e-02 -2.03780919e-01 +5.63604087e-02 +1.34365603e-01 -8.36488008e-02 -2.47147679e-01 +2.21166641e-01 +4.18961160e-02 +1.19612403e-01 +7.56926611e-02 +2.99248565e-02 -5.74842282e-02 -4.59812321e-02 -7.13079944e-02 +1.38625175e-01 -1.00947738e-01 -2.56368667e-01 +1.87458936e-03 -2.54272353e-02 +1.01039343e-01 -1.79563805e-01 +1.28919274e-01 +1.17713653e-01 +5.55662885e-02 -7.81705528e-02 +1.12999775e-01 -1.58083126e-01 -9.87279192e-02 -1.89013764e-01 -6.21819347e-02 -9.63141993e-02 -3.70510630e-02 +1.84352666e-01 +1.69187918e-01 +1.15445383e-01 +4.97849025e-02 -6.46091849e-02 -4.44165543e-02 +1.44671770e-02 -1.59850791e-01 -3.06095853e-02 -2.40291357e-01 -1.79422107e-02 -6.06256723e-01 -4.95306402e-02 -9.06160027e-02 +2.21131176e-01 -4.13661212e-01 +7.89216161e-03 +1.73919767e-01 -2.89848268e-01 -2.88277924e-01 +4.48050210e-04 +1.04368903e-01 -1.08774044e-01 -3.99980694e-01 -1.26723628e-02 -8.34058151e-02 +9.55576226e-02 -3.46651077e-01 -1.85208932e-01 -1.26227066e-01 -2.77803898e-01 -1.63677499e-01 -2.02767581e-01 -5.60055077e-02 -7.42052123e-02 +4.38966528e-02 -1.69486806e-01 -2.92171359e-01 +1.44850258e-02 +2.91600507e-02 +6.16660342e-02 -2.24684790e-01 -2.67808512e-02 +4.41976249e-01 -2.29898110e-01 +7.86796883e-02 +1.58312261e-01 -3.09790045e-01 +7.12694693e-03 +4.04790521e-01 +1.12874717e-01 -4.59552169e-01 +2.69022554e-01 +1.51274160e-01 -1.00009091e-01 +1.26849875e-01 -2.00817630e-01 -9.62037221e-02 -2.81803370e-01 +6.64529875e-02 +2.68578261e-01 +2.08401784e-01 +4.63738441e-02 -5.64928576e-02 -2.03108117e-01 +2.28010807e-02 -2.92327672e-01 +2.50025481e-01 +2.57204324e-02 +6.35132119e-02 -2.85584740e-02 +9.93587077e-03 -1.05884805e-01 -1.30598545e-01 +8.12533721e-02 -1.15370139e-01 +2.24488638e-02 +2.11344585e-01 -5.61710671e-02 -3.62875909e-02 +2.62174737e-02 -3.52270044e-02 -7.50729442e-02 -1.40289471e-01 -1.70715645e-01 -3.97052541e-02 -1.16117112e-02 -1.17428027e-01 -2.03453347e-01 -1.40053645e-01 -1.80659190e-01 +1.42751830e-02 -4.11604457e-02 +4.37394455e-02 +5.36145121e-02 +6.84772134e-02 -2.20827714e-01 +1.39092192e-01 +6.57585189e-02 -9.05734971e-02 +9.76693854e-02 +7.43916631e-02 -1.40356496e-01 -1.05325297e-01 +1.73977271e-01 -1.44261792e-01 +6.56817853e-02 -9.29056704e-02 +1.21545345e-01 +5.65687083e-02 -1.92174181e-01 +1.33652333e-02 -3.45725492e-02 +1.61296159e-01 +2.07037106e-01 +1.00650549e-01 -4.84317690e-02 -9.46706161e-03 -1.12356335e-01 +1.57785472e-02 +7.09836408e-02 -1.60820186e-01 -7.10514486e-02 +8.59348625e-02 +4.65786643e-02 -6.14854060e-02 +1.30259112e-01 -3.89484540e-02 -6.21834472e-02 -5.56746423e-02 -1.14328275e-02 +2.97264438e-02 -7.06585050e-02 -1.48120791e-01 -6.33541122e-02 -2.08193317e-01 -7.28793591e-02 -1.25496596e-01 -2.01085024e-02 -1.26605272e-01 -6.20311871e-03 +1.17985815e-01 -1.90572649e-01 -1.87663019e-01 -1.36782795e-01 +7.32613951e-02 -8.77687242e-03 -9.16922763e-02 -1.41567677e-01 -3.76206636e-02 -1.94229066e-01 -1.24580950e-01 -1.92516088e-01 +1.25225052e-01 -1.31731838e-01 +7.73386508e-02 +1.14720883e-02 +4.65627611e-02 -1.26895532e-01 -1.06637932e-01 -1.60652533e-01 +1.35302022e-01 +8.39580689e-03 -2.29235560e-01 -2.32836783e-01 -9.32905003e-02 -6.92410544e-02 -1.52783990e-01 -8.51971358e-02 +4.04682606e-02 +1.23910010e-01 -2.02365100e-01 -8.08897689e-02 -1.28130987e-01 -2.59607464e-01 +3.07009727e-01 +4.78115119e-02 +1.05198741e-01 +6.83073401e-02 +3.76460329e-02 +2.88405299e-01 -2.14704111e-01 -1.60531044e-01 +7.83776417e-02 -2.86780715e-01 +3.82742137e-02 +7.48298690e-02 -1.94794536e-01 -1.96124315e-01 +1.16721891e-01 -3.56324196e-01 +2.53305107e-01 +3.12913507e-02 +1.04699306e-01 +2.80354749e-02 -2.69490659e-01 -2.19937954e-02 -3.51346910e-01 -3.65146026e-02 -6.94942698e-02 +1.18649155e-01 +3.29978503e-02 -5.89696653e-02 +3.80018294e-01 +2.08046939e-02 +2.75659680e-01 +4.29032408e-02 +5.14288582e-02 +7.59857520e-02 +4.33078520e-02 +2.78479271e-02 +2.83757269e-01 +4.93228696e-02 -2.91099641e-02 -3.59605886e-02 -1.20489031e-01 +1.03231631e-01 -7.03147128e-02 -4.50858384e-01 +1.73927143e-01 +2.73706764e-01 -2.79195547e-01 -1.72292784e-01 +4.49615084e-02 -1.60478100e-01 +2.33128175e-01 -3.00199091e-01 -2.70079702e-01 -5.63529320e-02 +2.70505041e-01 -8.94998759e-02 -9.76774767e-02 -1.83184668e-02 -2.66355462e-02 -5.68420924e-02 -1.05612539e-01 -6.68304646e-03 +3.34926136e-02 +1.14115151e-02 -8.47000778e-02 +6.04596809e-02 +2.04844505e-01 +7.33309463e-02 -8.59626010e-02 +1.29093053e-02 +4.59222160e-02 +1.18157631e-02 +1.04540564e-01 -1.10851727e-01 +5.84306102e-03 +3.58910635e-02 +5.72119914e-02 -1.13406047e-01 +1.31525174e-01 -1.56267527e-02 +2.02065870e-01 +1.03420326e-02 +5.45733087e-02 -1.18688472e-01 -1.29295915e-01 -1.66564792e-01 +4.96003814e-02 +1.19506627e-01 +6.86849877e-02 +2.29645427e-02 +3.04321721e-02 -7.88507238e-02 +2.59635091e-01 -1.47943705e-01 -1.03678592e-02 -2.52148867e-01 +2.25368217e-01 +2.65513569e-01 -3.00561398e-01 -4.28545102e-02 +5.32326885e-02 +4.89194617e-02 -1.53294191e-01 +3.19956429e-02 +3.00469637e-01 -1.07390732e-01 +1.99338600e-01 -8.85635465e-02 +7.61716366e-02 +3.09457064e-01 -3.34633142e-02 +3.13049436e-01 +1.51506230e-01 +1.46920517e-01 +1.80575952e-01 +6.49386039e-03 -7.16755763e-02 -2.28780895e-01 +2.19740808e-01 -4.38687146e-01 +1.83752418e-01 +7.86300823e-02 +4.50648725e-01 +4.18001086e-01 -6.81187451e-01 +3.31217982e-02 -9.63720083e-02 -4.88621533e-01 +6.61924958e-01 +1.78339288e-01 -2.65244842e-01 +3.40803489e-02 +8.39234293e-01 -1.33123860e-01 -2.23284766e-01 -7.52608255e-02 +4.31941509e-01 +9.14488360e-02 +2.63657928e-01 +3.80080193e-01 -2.31182501e-01 -6.50447547e-01 -2.84676868e-02 -4.79788303e-01 +1.00725316e-01 +1.59795862e-03 +1.14355654e-01 -1.11426776e-02 -5.17789304e-01 +2.75809437e-01 -3.54082465e-01 -5.60050666e-01 -2.65186131e-01 -5.31493053e-02 -1.57927833e-02 -5.99317327e-02 -2.02836365e-01 -1.90383643e-01 +1.25325248e-01 -2.07890883e-01 -1.84906557e-01 +4.79744747e-02 +1.40775427e-01 +1.24722041e-01 -4.69454415e-02 +1.52232528e-01 -1.01978974e-02 +3.78908701e-02 -6.98312605e-03 -4.70108762e-02 -1.64721921e-01 -1.95127279e-01 +1.11854777e-01 -1.99392244e-01 -8.10156912e-02 -2.06937268e-01 -6.93327412e-02 +9.89534110e-02 -1.86930954e-01 +1.30726025e-01 +4.43585850e-02 -1.42478839e-01 +6.13494441e-02 -1.18863001e-01 -1.34397268e-01 -1.18840843e-01 +9.99462605e-03 -3.27010080e-02 -1.79259211e-01 +6.49787411e-02 -1.50339836e-02 +1.33986458e-01 +1.39412910e-01 -7.89462328e-02 +4.29187715e-03 -9.00929421e-02 -1.64735898e-01 +4.93787415e-02 +1.65552273e-01 -1.84322700e-01 -2.01898813e-01 -1.93485245e-01 -1.55546650e-01 +3.06910835e-02 -1.50170818e-01 +1.33938119e-01 +1.32374018e-01 +8.22975487e-02 +7.22636729e-02 +7.46328235e-02 -2.03603610e-01 -1.68564260e-01 -1.93342373e-01 -6.98542893e-02 -2.98457909e-02 -5.02995513e-02 -8.40856973e-03 -1.84878409e-01 -8.56923983e-02 +1.31144196e-01 -2.07203820e-01 +1.03956051e-01 -3.91433276e-02 -3.98800820e-02 +1.17603410e-02 -1.49225146e-01 +1.46749914e-01 +1.20172203e-01 -3.08755368e-01 -1.18980616e-01 +4.21338044e-02 -3.13566595e-01 -1.31432623e-01 -1.73206717e-01 -2.47833282e-01 -3.18863153e-01 -2.79235899e-01 -2.06433982e-02 +7.61439130e-02 -2.63932407e-01 -2.49652304e-02 -1.93521634e-01 -8.42920914e-02 +2.98757613e-01 -1.09999001e-01 -2.26860091e-01 -1.78900640e-03 -1.34825602e-01 +5.89672625e-02 +2.24168688e-01 +3.36545527e-01 +7.68797323e-02 -2.45200515e-01 -6.47671754e-03 -5.17148040e-02 -1.24200746e-01 +5.69442473e-03 +3.63982804e-02 +1.00678220e-01 +3.58586609e-01 +1.20933419e-02 -3.38757858e-02 +1.37513295e-01 -8.46473202e-02 -5.04961573e-02 -6.50726408e-02 -9.87607688e-02 +2.10741639e-01 +6.71357661e-02 +2.65204404e-02 +1.53209984e-01 -8.49254951e-02 -8.72979686e-02 -3.65520716e-01 +3.94357264e-01 -4.85069424e-01 -1.76620647e-01 +2.38166153e-01 -1.83753446e-02 -2.12661922e-03 +8.34386572e-02 +1.10625044e-01 -2.47447059e-01 -4.79439534e-02 +3.04695740e-02 +6.86389655e-02 -1.85148001e-01 -1.63844675e-01 -1.44948617e-01 -1.19575813e-01 -1.19100526e-01 -2.91485786e-02 +5.56195937e-02 +8.25484376e-03 +8.30631405e-02 -1.86102226e-01 +4.11340035e-02 +6.61031827e-02 +4.13269773e-02 +3.81893516e-02 -1.40514120e-01 +1.38995081e-01 -5.37320897e-02 +8.95358026e-02 -1.14440665e-01 +2.15777960e-02 +1.52745163e-02 -1.54127002e-01 -1.11800820e-01 +1.74774766e-01 -3.57237756e-02 -6.62083402e-02 +4.03048433e-02 +1.18519338e-02 -9.27470252e-02 +1.80481121e-01 -1.67771325e-01 +6.49634674e-02 -3.87506075e-02 -8.33114237e-02 -1.96439654e-01 +5.37463762e-02 +1.76594540e-01 -1.82460472e-01 -1.00230135e-01 +4.79592308e-02 -3.27193476e-02 +1.23311684e-01 -5.53804412e-02 -1.80917561e-01 -1.65741459e-01 -5.53977340e-02 +7.67557994e-02 +7.40742832e-02 -1.86162308e-01 -1.91964433e-01 -1.10628650e-01 +4.34175581e-02 -7.83803836e-02 +1.83436155e-01 -1.85501292e-01 +1.51732624e-01 -5.62867010e-03 -8.87678191e-02 +2.02273875e-01 +1.40560240e-01 -2.01285273e-01 -2.41757408e-01 +3.01757753e-01 -4.32672948e-02 -1.68693326e-02 -4.62122671e-02 +1.77444264e-01 +2.11355567e-01 -3.74965428e-04 +3.64184305e-02 +1.34489119e-01 +1.17975600e-01 +9.67269540e-02 +6.38291836e-02 +7.35406354e-02 +1.49192423e-01 -1.05333939e-01 +1.39445513e-01 +1.67211622e-01 -1.27784535e-01 -1.73393488e-01 +2.49616951e-01 +6.48776367e-02 -9.96690318e-02 +8.12237710e-02 -5.50017990e-02 -1.02030039e-01 -4.88295257e-02 +1.49522454e-01 +1.06208183e-01 -2.12415397e-01 -1.71540901e-01 -1.44599840e-01 +8.70337561e-02 -9.61153954e-02 +1.71651691e-01 +3.18007581e-02 +9.87375304e-02 -8.42382014e-03 +9.92688611e-02 -1.53692454e-01 -4.99313325e-01 +3.16359937e-01 -1.99844122e-01 -4.15403955e-02 +1.22428939e-01 +1.56172458e-02 +3.06496680e-01 -8.32813531e-02 -9.94524956e-02 -1.05119161e-01 -2.26604752e-03 -1.31084427e-01 -1.94844410e-01 -1.63286597e-01 +3.79336387e-01 -2.91574925e-01 +4.05198425e-01 -4.54019569e-03 -1.61302701e-01 -2.35912755e-01 -2.44017527e-01 -7.21297115e-02 +1.24036178e-01 -7.18949884e-02 +8.41803923e-02 +4.09746140e-01 -1.85665414e-02 +2.22013295e-01 +1.31730899e-01 -2.20285542e-02 +2.27442265e-01 -1.70628726e-01 +1.94025576e-01 +3.58696163e-01 +1.51197106e-01 +8.35347734e-03 +2.40390345e-01 +1.76997185e-01 +2.23702773e-01 -1.12175345e-01 +1.76742017e-01 +2.35979334e-01 +1.21234439e-01 -2.08989996e-03 +2.00432807e-01 +4.65451628e-02 -4.96901385e-02 -8.10600370e-02 -2.61319458e-01 +9.45705473e-02 -2.33211853e-02 +3.58349651e-01 +2.85210684e-02 -4.65949215e-02 -2.45530158e-02 +1.00692086e-01 -1.04585491e-01 +2.44221821e-01 +6.65914500e-03 -7.95721859e-02 +1.54019490e-01 +1.22707784e-01 +9.48913619e-02 +9.63898301e-02 -2.10775752e-02 -1.88172430e-01 -6.77513145e-03 -3.51216160e-02 +2.11323783e-01 +1.44045219e-01 +4.13452741e-03 -5.69004267e-02 +1.24323033e-01 -9.04300883e-02 -6.15286790e-02 +1.95733085e-02 -4.77048010e-02 +3.72899300e-03 +8.17690939e-02 -8.13766010e-03 -1.77190870e-01 -1.39381185e-01 +3.40833589e-02 +1.12593949e-01 -1.35337561e-01 +1.20237604e-01 -1.38791159e-01 +2.72738129e-01 +1.00153945e-01 +4.89595532e-01 +1.00741662e-01 +1.43661082e-01 -7.40602985e-02 +7.51019344e-02 -9.22506526e-02 -7.39046037e-02 +1.74815089e-01 +2.80257910e-01 +2.17027694e-01 -1.24983914e-01 +1.92247167e-01 +9.80177969e-02 +2.54406314e-02 +1.93621874e-01 +4.25096489e-02 +3.76827061e-01 +4.00447130e-01 +1.74121842e-01 +1.91903651e-01 -3.91856655e-02 +7.19682202e-02 +2.09097773e-01 +4.84407023e-02 +7.98257217e-02 +2.53688991e-01 +2.75726110e-01 -4.28253133e-03 -1.21034987e-01 -1.99088097e-01 +9.51073170e-02 +1.93995714e-01 +5.11382483e-02 +2.68166900e-01 -1.26980450e-02 -8.54265615e-02 +1.42031103e-01 -1.12030515e-03 -2.63952851e-01 -1.91410169e-01 +1.33265778e-01 -9.81697738e-02 -1.87082380e-01 +2.41628617e-01 -5.08494303e-02 +3.14496458e-01 +1.95647568e-01 +3.55972648e-02 +1.20848371e-02 -2.32149750e-01 -7.59762079e-02 -4.70829979e-02 -1.54627234e-01 +2.25290954e-01 -7.00990856e-02 +3.93605679e-01 -7.06734806e-02 -2.29903564e-01 -1.75394360e-02 +8.28241482e-02 +1.86970428e-01 +6.19322769e-02 +6.57647625e-02 -1.48830891e-01 +1.92935407e-01 +1.59816071e-01 +1.62263602e-01 -1.23620369e-01 +2.39673629e-01 +2.19867095e-01 -1.15817532e-01 -1.80462897e-01 +2.00268358e-01 -8.51282477e-02 +1.57111570e-01 +8.31909105e-02 -1.09005302e-01 +1.73274204e-01 +2.33688354e-01 +5.49120270e-02 +2.59692699e-01 +1.14153242e-02 -2.25117862e-01 +2.99657822e-01 -1.25347316e-01 -1.93600714e-01 -1.00809000e-01 -1.67914957e-01 -8.57436433e-02 +1.78204387e-01 +1.16938896e-01 +4.84958328e-02 -6.46832362e-02 -6.69739172e-02 +1.17730238e-02 +9.72503424e-02 -8.51032063e-02 +1.04700718e-02 +1.67859733e-01 -1.81026772e-01 -1.09023862e-01 -6.59240931e-02 +1.09131470e-01 +5.50449789e-02 +1.36233032e-01 -4.29758206e-02 -1.26855016e-01 +7.12279556e-03 -1.02759756e-01 -3.93077582e-02 +4.91767563e-02 +6.34314939e-02 +1.42345697e-01 +1.93819880e-01 -9.52654034e-02 -1.33999065e-01 -6.31949771e-03 -5.11033833e-02 +7.51248077e-02 +5.09502999e-02 +2.68252529e-02 +4.09932993e-03 +1.72156990e-01 +3.87893319e-02 +2.88865715e-02 +2.57235374e-02 +1.00925699e-01 +1.19999357e-01 +2.53977180e-01 +1.20940909e-01 -3.25690210e-02 +3.90052535e-02 +1.90815583e-01 +1.08157486e-01 +7.25314990e-02 -7.73790032e-02 +1.03303559e-01 +1.88071713e-01 -1.34927511e-01 +3.25047791e-01 -3.16984095e-02 +1.97041184e-01 +2.06845000e-01 -1.73217535e-01 -2.29430422e-02 +1.81685776e-01 +1.13986626e-01 -1.76552236e-02 +2.31595263e-02 +9.87817422e-02 -8.06476846e-02 +5.84667213e-02 -4.60287519e-02 +2.01988921e-01 +8.84451494e-02 -4.46440764e-02 +1.93367437e-01 -9.70484391e-02 +1.11003332e-01 +9.65921059e-02 +8.75988510e-03 +1.30174875e-01 -3.52714323e-02 +1.22497000e-01 -1.00602552e-01 +2.04527676e-01 +4.69229147e-02 +3.30526412e-01 +1.83556914e-01 -6.58365935e-02 -3.91325280e-02 -2.41846874e-01 -9.60712321e-03 -2.26473995e-02 -8.89685899e-02 -2.72900984e-03 -1.15537897e-01 -5.73234931e-02 -4.01596986e-02 -1.97326079e-01 +2.78330415e-01 -1.10448234e-01 +1.51783571e-01 -1.49418086e-01 +1.55368686e-01 -3.13607194e-02 -1.26868729e-02 +1.66880693e-02 +1.00919373e-01 -1.27700552e-01 +2.23047674e-01 -4.39583324e-02 +1.53522551e-01 +1.81635588e-01 -5.71695603e-02 +4.48705032e-02 +1.30573362e-01 +9.08451080e-02 +1.87649339e-01 -8.83101448e-02 +1.45941183e-01 +1.54009676e-02 -7.73468986e-02 +2.01061487e-01 -9.99527350e-02 +1.17077664e-01 -1.80190086e-01 +1.40519232e-01 +5.91435172e-02 +1.21813431e-01 +2.08545938e-01 +1.46486117e-02 +1.54009297e-01 -2.48973724e-02 +2.34787330e-01 -1.67568728e-01 +7.54845813e-02 -1.32297069e-01 +2.50625938e-01 -7.68392673e-03 -1.91558883e-01 +1.70169383e-01 -5.67542738e-04 +3.59416590e-03 +1.70084700e-01 -8.45598876e-02 +6.18833266e-02 -7.24866539e-02 +1.29070938e-01 +2.91286279e-02 -1.71930656e-01 +1.31745711e-02 -1.92753859e-02 +1.81549072e-01 -9.50344354e-02 +2.02321842e-01 -7.39052221e-02 -2.02917736e-02 +8.12928826e-02 -1.26088083e-01 +1.56940371e-01 +1.53854772e-01 +1.39208376e-01 -1.44813433e-01 +2.19010692e-02 +6.70665279e-02 +3.75009328e-02 +1.36892289e-01 -8.66372064e-02 -6.90058768e-02 -1.13866962e-01 -1.53062657e-01 +2.36378219e-02 +1.13570720e-01 +2.51801908e-01 +2.16948874e-02 -2.64843017e-01 -6.75813332e-02 +5.10731936e-02 +1.45624392e-02 +2.35066921e-01 -1.86644033e-01 +1.60676718e-01 +4.78398018e-02 -2.12210879e-01 +2.76418142e-02 +2.08382886e-02 +6.72281832e-02 +1.33719072e-01 +8.27455968e-02 -6.61299080e-02 +8.33926722e-02 -1.03875108e-01 +1.73086122e-01 +2.70711899e-01 +1.32907018e-01 +3.27092260e-02 -3.94515414e-03 -1.36537224e-01 -1.11594498e-01 +1.50438294e-01 -1.62353236e-02 +9.88209173e-02 -6.83312863e-02 -8.58917013e-02 -1.31904066e-01 +2.21416891e-01 -2.04652131e-01 -6.36871755e-02 +1.19069688e-01 -1.85567871e-01 +1.33152083e-01 -5.90550713e-02 -1.14137091e-01 -1.68639868e-01 +6.78421110e-02 +1.15442373e-01 +9.11302492e-02 +1.20215237e-01 -9.92465690e-02 +2.66890526e-01 -1.20446570e-01 +6.55966848e-02 -1.90376610e-01 +5.66866249e-02 -1.00341432e-01 +3.21466446e-01 +1.44108519e-01 +3.02510709e-01 -8.22682530e-02 +2.75413334e-01 -3.64607155e-01 -1.61534801e-01 -8.98507312e-02 -2.16487303e-01 +6.55705929e-02 -3.91939469e-02 +8.09586644e-02 +7.97882583e-03 -6.00372534e-03 -3.04218605e-02 -4.49873134e-02 -1.42299056e-01 +9.62798148e-02 -1.84024982e-02 -1.31096795e-01 +8.33743438e-02 +1.81363791e-01 -9.13803577e-02 +1.49576738e-01 +9.23087522e-02 +1.55406609e-01 -9.29284841e-02 +1.30963214e-02 -1.73165709e-01 -4.48862128e-02 +4.59991544e-02 +1.30309001e-01 -1.27331764e-01 -1.72809465e-04 -4.52420972e-02 +8.74212831e-02 +1.55814782e-01 +1.13465466e-01 +5.79401217e-02 +2.18070030e-01 +1.96121812e-01 +6.00869432e-02 -1.35323048e-01 +1.72496065e-01 +1.20878637e-01 -1.72350541e-01 -4.48487103e-02 +9.01016444e-02 +1.57612696e-01 -2.03297213e-02 -1.77514777e-01 +2.21807640e-02 -6.53507188e-04 +5.70963286e-02 -9.61267129e-02 +1.14346206e-01 +1.65782377e-01 +5.75813092e-02 -1.65763929e-01 -1.06889652e-02 -5.79060689e-02 -4.20206040e-02 +1.03794932e-02 +3.29195894e-02 +6.83510602e-02 -1.33296430e-01 +8.00320785e-03 -1.49063528e-01 -1.32342339e-01 -1.85409933e-01 -1.72698364e-01 +1.81404456e-01 -1.37428388e-01 +3.01463697e-02 -1.71708129e-02 +6.30288199e-02 -4.34277914e-02 +9.52681303e-02 +1.77169845e-01 -8.45400319e-02 +1.03306428e-01 +8.61894414e-02 -5.81170581e-02 +7.47744832e-03 -1.30139161e-02 +9.20670927e-02 -9.36074555e-02 -1.56925544e-01 -1.85865805e-01 +1.06617473e-01 +1.07117504e-01 +1.48807347e-01 -8.60143378e-02 +2.49778782e-03 -1.10536084e-01 -3.46953124e-02 +1.86742187e-01 +1.05097115e-01 -1.61932379e-01 +5.30647784e-02 -8.42797011e-03 -1.48148656e-01 +1.87123135e-01 +1.08431771e-01 +9.37758535e-02 +1.14401050e-01 -7.19418153e-02 +1.00070477e-01 -1.56387866e-01 +6.63557053e-02 +2.09864169e-01 +1.63153648e-01 +1.15423940e-01 +1.45002991e-01 +7.70522431e-02 -4.78890315e-02 -2.05435723e-01 -3.49307448e-01 -9.55255255e-02 -2.43607685e-01 +1.42774180e-01 +1.57397225e-01 -1.58568695e-01 +8.86783153e-02 +6.81594238e-02 +1.49617404e-01 +3.12199704e-02 -4.24985103e-02 -5.46027087e-02 -2.54355054e-02 -6.38067722e-02 +2.93623149e-01 -1.99279144e-01 +5.32601893e-01 +1.24891996e-01 -4.21229266e-02 -1.59121361e-02 -1.86491996e-01 +1.03190653e-01 +2.14506000e-01 +2.49071885e-02 -3.42663042e-02 -1.23879939e-01 +1.24529004e-01 -1.78801030e-01 -1.12788547e-02 +7.11377710e-02 +9.72869247e-03 +1.90840475e-02 +1.45471513e-01 -8.00034404e-02 -1.85741544e-01 -1.02738310e-02 -4.71321158e-02 -1.14304572e-02 +3.81789193e-03 -1.09735809e-01 +9.60785449e-02 +1.69061139e-01 +1.53753296e-01 +2.32875422e-01 -1.62405491e-01 -2.73073819e-02 -3.32645550e-02 -1.16609864e-01 +7.35434964e-02 +2.38630567e-02 +1.55518427e-02 +7.73817673e-02 -2.34960075e-02 +8.17192644e-02 -6.64167665e-03 +1.27601758e-01 +5.22694886e-02 +2.13041931e-01 +1.57588869e-01 +1.27908990e-01 +8.03173408e-02 -1.07165694e-01 -6.86964318e-02 -6.63900897e-02 -1.57916009e-01 +1.42800212e-01 +4.25724052e-02 -1.62050307e-01 -1.33194640e-01 -5.04543725e-03 -1.03358388e-01 +1.60282955e-01 -1.73240244e-01 -8.12470317e-02 +1.55156672e-01 -5.70567362e-02 +1.79242626e-01 +1.57259554e-01 +8.85444954e-02 -7.63221979e-02 -1.59732789e-01 +7.61417821e-02 +4.10600007e-02 -5.13884649e-02 -2.92092543e-02 +5.40953316e-03 -7.24089220e-02 +6.17041811e-02 +1.15681089e-01 +1.93299636e-01 -3.40831056e-02 +1.37400310e-02 +2.42874846e-01 -8.84608254e-02 -1.28240407e-01 -3.43232192e-02 +4.47967686e-02 -1.37839662e-02 -5.10677882e-02 -1.59781367e-01 -2.29192581e-02 +1.13151841e-01 +1.29964622e-02 -8.01741034e-02 +9.31805186e-03 +1.28887380e-02 -9.58592072e-02 -8.87944624e-02 +1.08103730e-01 +1.68320909e-01 +1.37934387e-01 -1.16193444e-01 +1.82826892e-01 +2.54986674e-01 -6.33523390e-02 +1.42832845e-01 -2.05011573e-03 +4.54920763e-03 +1.55085564e-01 -6.87448084e-02 -2.51228660e-01 +2.09374219e-01 -1.35105714e-01 +2.34913453e-01 +8.05314258e-02 -6.04276583e-02 -2.28939503e-01 +6.14594072e-02 -1.54113173e-01 -2.28865206e-01 -2.31150091e-01 +7.99926892e-02 +5.64355738e-02 -1.74190015e-01 +1.42863616e-01 -1.09012336e-01 -3.05300325e-01 +3.06997210e-01 -5.65059818e-02 -2.12068930e-01 +3.01650111e-02 -1.75563730e-02 +1.71595305e-01 -6.66243508e-02 -3.21669653e-02 +1.69580624e-01 -2.42528409e-01 +2.56975591e-01 +3.10501158e-01 -2.97760945e-02 -2.11153682e-02 -1.32876751e-03 +1.41183898e-01 +1.44192651e-01 -9.51828137e-02 -2.75092553e-02 +1.46655723e-01 -6.03373237e-02 +1.39806658e-01 -9.41193837e-04 -9.89004299e-02 +2.75801599e-01 +1.23088971e-01 -2.18241081e-01 -4.30398621e-02 +1.67159989e-01 +4.71005850e-02 -1.29713729e-01 +4.17016782e-02 +1.14864238e-01 +5.99841820e-03 +1.29818246e-01 +1.03587843e-02 -1.33969009e-01 -1.77673146e-01 -4.74387258e-02 +4.56039831e-02 -2.33386941e-02 -1.68233979e-02 +8.92309472e-03 +1.51925921e-01 -2.65254509e-02 +1.36023223e-01 -1.76215708e-01 -6.47057891e-02 -5.80568127e-02 +1.70831472e-01 +2.71590985e-02 +7.12073520e-02 -2.11800680e-01 +7.46867061e-02 +3.02808043e-02 -6.19864427e-02 -1.93599626e-01 +1.68615401e-01 -1.07693121e-01 +1.55106142e-01 -5.41932732e-02 -5.82351424e-02 +1.44243583e-01 +1.45908847e-01 -1.11275250e-02 +1.68714114e-02 +1.62114814e-01 +1.34698555e-01 -1.77178577e-01 -1.26401320e-01 -4.78455797e-02 -7.55934685e-04 -1.32571086e-02 -1.66000649e-01 +4.80924472e-02 -1.92002013e-01 -1.37072848e-02 +1.14329658e-01 -1.20715298e-01 -9.29648802e-02 +2.71214247e-01 -4.16458026e-02 +1.26586929e-01 +1.96294889e-01 -8.61582682e-02 +5.93920387e-02 +3.09980158e-02 +6.58174837e-03 +2.20224082e-01 +1.05375953e-01 -1.85584277e-01 +2.04218458e-02 -4.73012403e-02 +8.55812989e-03 +1.63849746e-03 +1.66103631e-01 +2.16490462e-01 +5.28431349e-02 +6.44751489e-02 -1.02406755e-01 +1.06664293e-01 -3.75383720e-02 +1.58270925e-01 -2.68141013e-02 -3.23121175e-02 +2.21878231e-01 -1.16796963e-01 +1.48004249e-01 -4.01593328e-01 -1.02443635e-01 -2.48244390e-01 -5.92084527e-02 -9.75191742e-02 +1.38362244e-01 -9.99732465e-02 +8.04080293e-02 -9.97309759e-02 -9.94709507e-02 -4.38932292e-02 -3.78695071e-01 +1.36505932e-01 -1.36073083e-01 -1.24893993e-01 +3.10188085e-01 -1.88486502e-01 -3.78139243e-02 +8.32604617e-02 +2.15406194e-01 +4.38097380e-02 -7.09114000e-02 -9.67210904e-02 -1.69083998e-02 -2.42625773e-02 +3.65099870e-02 -1.21741466e-01 +1.80815607e-01 +2.34461337e-01 -1.84374191e-02 -7.98832700e-02 -2.28176843e-02 -1.49523377e-01 -9.62501466e-02 +2.35311598e-01 +9.24366862e-02 +8.91709179e-02 -5.74219413e-02 +1.44513428e-01 -3.92599851e-02 +2.21897319e-01 +1.82560503e-01 +3.29991020e-02 +1.74431115e-01 +1.27099514e-01 +1.80862680e-01 +1.82717353e-01 +1.79251060e-01 +1.28695354e-01 +1.75243840e-02 -1.07442394e-01 +9.15317237e-02 +3.38948406e-02 +3.43127619e-03 -4.78845425e-02 +1.84725717e-01 +2.10574657e-01 +2.26990774e-01 -1.36291385e-01 +5.56810834e-02 +1.57757744e-01 -1.11495830e-01 -7.36450031e-03 +4.53091525e-02 +1.18082739e-01 -3.84801850e-02 -1.07569896e-01 +6.31517842e-02 +1.26190305e-01 +1.27279818e-01 -6.73251003e-02 -1.53792435e-02 -4.05051894e-02 -1.17722288e-01 -7.46269152e-02 +7.07682222e-02 -1.88583747e-01 -1.44681320e-01 -1.65348381e-01 -8.59955624e-02 -1.39875785e-01 +1.17044970e-01 +1.45413935e-01 +1.39413550e-01 -5.68171889e-02 -1.21730655e-01 +1.70003116e-01 +1.14236861e-01 +1.55904785e-01 -1.26547456e-01 +1.05134495e-01 -1.96565956e-01 +1.90888613e-01 +1.39125451e-01 +1.09317325e-01 -1.78145155e-01 +5.23889363e-02 +2.13996209e-02 +5.56591488e-02 -1.17749386e-01 -1.86886057e-01 +1.39650166e-01 -1.20744109e-02 +2.58551836e-01 +9.47330445e-02 -1.99657962e-01 +1.33974478e-01 -5.08790761e-02 -2.30692402e-01 -1.20998636e-01 +5.33464886e-02 +1.68587774e-01 -1.38695434e-01 +3.70325185e-02 -8.73841718e-02 +1.47542834e-01 -9.93855298e-02 -7.55451024e-02 -4.62365709e-02 -5.46676554e-02 +1.15149021e-01 +3.11119165e-02 -1.19233504e-01 +8.23102221e-02 +2.24483594e-01 -1.07006222e-01 +1.07239723e-01 -1.84515137e-02 -1.26678601e-01 +2.44643353e-02 -2.10895658e-01 -1.99514721e-02 -9.18979049e-02 -6.13422617e-02 -1.75677568e-01 +1.11300543e-01 -2.50006348e-01 +2.04007670e-01 -1.62815258e-01 +3.34582627e-01 -8.11751038e-02 -3.41632813e-02 +3.08059156e-01 -2.71685958e-01 +3.97594087e-02 -5.38825393e-02 +1.79549500e-01 -4.15484570e-02 -1.53869778e-01 +9.83841494e-02 +2.28981718e-01 -2.40849219e-02 +1.49397343e-01 -3.04657906e-01 +7.43004531e-02 +3.19101699e-02 +1.82647482e-01 +2.00473741e-01 -1.27810985e-01 -1.20411627e-01 +1.45119369e-01 -1.11048348e-01 +3.30730155e-02 +1.54802233e-01 -2.39121318e-02 -7.82040060e-02 +1.89939141e-02 -3.22234109e-02 +1.66149229e-01 +1.10227667e-01 -3.48909236e-02 -9.40928981e-02 -5.77675998e-02 +1.61662161e-01 +3.46409045e-02 +6.52026236e-02 -4.65369709e-02 +1.35393724e-01 -2.15252906e-01 +1.08480424e-01 -4.45904508e-02 -1.79049179e-01 -2.56422814e-03 +1.66668043e-01 -1.44037634e-01 +1.20386079e-01 +1.59250230e-01 -4.41559590e-02 +2.74756759e-01 -1.05834730e-01 +1.95606530e-01 +3.22285146e-01 -1.45219937e-01 -1.53932959e-01 +1.11565046e-01 -1.48820505e-01 +1.32115319e-01 -1.87733397e-01 +1.67635605e-01 -1.54478177e-02 -7.15840459e-02 +2.64263246e-02 +1.54526725e-01 -1.67028695e-01 -1.08783536e-01 +6.72281682e-02 -1.89541116e-01 +1.00044452e-01 +1.17007665e-01 -2.75143888e-02 -5.22890911e-02 -1.02445632e-01 +6.74106479e-02 -8.60045850e-02 -1.84822068e-01 -1.45861596e-01 +1.67696644e-02 +6.95631653e-02 -1.76598206e-01 -1.75115153e-01 -1.12909891e-01 +3.18947844e-02 -8.50016251e-02 +9.56073217e-03 +8.60898718e-02 -2.52463091e-02 +1.54930636e-01 +2.49708056e-01 -6.35637417e-02 -8.30759015e-03 +1.41317695e-01 +3.11870009e-01 +6.49659112e-02 -1.33066699e-01 +1.79751843e-01 -7.31987357e-02 +8.03065747e-02 -5.15043102e-02 -1.55606285e-01 -1.39629856e-01 -9.80405658e-02 +1.66366063e-03 -2.15377063e-01 +1.66893318e-01 +5.53390495e-02 +9.31680873e-02 +3.55001874e-02 +1.68825582e-01 -1.55492887e-01 +7.36635253e-02 -1.02864496e-01 -8.41432512e-02 +1.37936160e-01 +1.68761298e-01 -1.28207505e-01 +3.00457031e-01 -2.55047530e-01 -4.50211503e-02 -3.09740722e-01 -1.60829693e-01 +1.36723042e-01 +9.90141854e-02 +2.48711690e-01 +3.37799013e-01 -1.40621126e-01 +1.05515933e-02 -1.06934026e-01 -7.44825378e-02 -2.86980629e-01 -1.76221550e-01 +1.82737648e-01 -1.28855910e-02 -2.70643651e-01 +1.30050302e-01 -2.29265898e-01 -8.75799060e-02 +1.37546152e-01 +1.66934520e-01 -2.34623775e-01 +9.12845209e-02 -3.45080107e-01 +1.60042048e-02 -2.94355989e-01 +2.43623957e-01 +1.82851508e-01 +6.78258315e-02 +3.55466153e-03 +9.12293866e-02 +4.04130220e-02 +9.58573669e-02 +1.03613593e-01 +2.59430166e-02 +2.35063538e-01 +1.87769368e-01 -5.09555005e-02 +2.04327494e-01 +3.48380301e-03 -2.85703614e-02 -1.33531377e-01 -5.59681989e-02 -2.48099514e-03 +4.59629260e-02 +2.00250298e-01 -2.13088095e-03 +2.36063123e-01 +5.94762154e-02 +9.42894593e-02 -1.23898923e-01 +9.16091949e-02 -3.78135778e-02 +2.34138995e-01 -6.70121759e-02 -9.49658081e-02 +7.48039037e-02 -1.32512271e-01 +3.80705185e-02 +3.01633656e-01 +1.76792502e-01 +1.93558231e-01 +9.29522887e-02 +3.98406722e-02 -8.96224678e-02 +4.07184251e-02 +7.12831244e-02 -1.55032128e-01 -1.28293112e-01 +9.87705216e-03 +9.70194191e-02 +1.55898750e-01 -5.95833436e-02 -1.66482612e-01 -1.14860106e-02 +6.16249442e-02 -4.04199511e-02 +7.26751164e-02 +1.21338382e-01 +9.07818377e-02 +1.97600111e-01 +2.09750161e-01 -1.27306029e-01 -5.91889918e-02 +1.20432481e-01 -1.70093119e-01 -6.77925348e-02 +1.69861153e-01 +1.64071113e-01 +1.53744519e-01 -1.56477392e-01 -4.67821881e-02 -8.05927366e-02 +8.80501345e-02 -8.00848007e-03 +1.26247779e-01 -1.63159538e-02 +5.14108241e-02 +1.09139219e-01 -8.24757069e-02 -6.89145997e-02 +2.55382746e-01 +1.03289649e-01 +8.02949890e-02 -1.55553311e-01 -1.50884345e-01 +1.33922622e-01 +2.27316558e-01 -3.56317833e-02 -1.90508850e-02 +1.38659671e-01 -2.63969470e-02 +8.50475803e-02 -3.73754231e-03 -5.26628196e-02 -2.99927425e-02 -1.38831772e-02 -6.27734959e-02 +2.47677341e-02 -1.77816711e-02 +2.51340568e-02 +9.20693874e-02 -5.78371733e-02 +2.70680428e-01 +5.65622933e-02 +1.72708690e-01 +2.31192499e-01 -2.04152063e-01 -1.47182662e-02 +3.27950623e-03 -2.12553486e-01 +2.65810229e-02 +1.65604830e-01 -7.83858970e-02 +1.97072163e-01 +4.14182916e-02 +2.19531301e-02 +7.87246451e-02 -9.02755484e-02 -1.61594304e-03 -1.15050487e-01 -1.62614673e-01 -6.02902956e-02 +7.68697336e-02 -1.10988677e-01 +1.45940959e-01 -9.79118794e-02 +6.26533702e-02 +1.97481766e-01 +1.19709305e-01 +1.32168634e-02 +1.52050942e-01 +5.14555462e-02 +1.79370761e-01 +1.48357391e-01 -1.63207427e-02 -2.46131167e-01 -3.45210060e-02 +2.48091117e-01 -2.18366772e-01 +7.10232556e-02 -1.77739322e-01 -1.31330460e-01 -1.13295928e-01 +1.04207650e-01 +1.17314205e-01 -2.62362540e-01 +1.53829500e-01 -1.70382336e-01 -6.41905470e-03 -1.59899577e-01 -1.33270338e-01 -2.62076277e-02 +4.97664809e-02 +3.55819315e-02 -5.01330048e-02 +1.36231646e-01 +2.31063262e-01 +2.68514473e-02 -2.39850223e-01 +3.01165995e-03 -1.38174698e-01 -8.70160386e-03 +1.78304706e-02 -9.04858932e-02 -1.38945639e-01 +1.55854672e-01 -1.29006878e-01 -8.35140701e-03 -6.74691200e-02 -2.22257733e-01 -1.71226844e-01 -1.08581938e-01 +3.09897512e-02 +6.68864790e-03 +4.72267233e-02 +6.73183501e-02 +1.96763813e-01 -1.41599253e-02 -1.08375639e-01 +6.58223778e-02 +1.21173538e-01 -1.45540208e-01 -4.93779108e-02 -5.47112226e-02 -1.27106592e-01 +8.32492262e-02 +1.36191934e-01 -1.36175692e-01 +6.20579012e-02 -1.45198718e-01 +5.37443273e-02 -2.03384478e-02 +5.68382367e-02 +8.11593458e-02 +1.77429944e-01 +1.04622558e-01 -4.54041660e-02 +2.45436653e-02 +6.82955161e-02 -1.81908086e-02 -1.91649050e-01 -9.21958014e-02 +5.21460883e-02 -6.74264431e-02 +8.35467726e-02 -1.68010235e-01 -3.65787476e-01 -8.82237963e-03 +2.36413866e-01 -2.22530612e-03 -7.99297914e-02 +5.91431446e-02 +2.37524003e-01 -9.50591639e-02 -3.11404765e-01 -3.32836099e-02 +1.74646482e-01 -2.29231194e-01 -1.80433676e-01 -1.62839562e-01 +6.21675774e-02 -7.20876679e-02 -1.02035746e-01 -1.63842514e-01 +2.47263405e-02 -1.41671687e-01 +3.13422992e-03 +1.91359743e-02 -1.85046539e-01 +1.64940804e-01 -1.09314568e-01 +4.15611938e-02 +9.86647010e-02 -2.78850913e-01 +8.11996113e-04 -5.27941771e-02 +2.59935800e-02 -6.69683218e-02 +1.61333665e-01 -9.02266055e-02 +2.95936242e-02 +1.96804464e-01 +9.69185084e-02 +1.23691760e-01 +2.30645075e-01 +3.08037370e-01 -1.22785009e-01 +2.78073162e-01 +9.02275443e-02 -1.64436877e-01 +3.02532315e-02 -9.28149149e-02 -1.72252208e-01 -6.42708614e-02 -1.41447991e-01 -1.15717679e-01 +3.22856873e-01 +1.23915307e-01 -1.59822717e-01 -2.08510026e-01 +2.41219066e-03 -2.50406444e-01 +1.31603837e-01 +2.52933294e-01 -1.84857011e-01 -1.72219872e-01 -8.42797831e-02 +1.84197545e-01 -2.96289325e-02 +3.93986925e-02 +1.45664820e-02 +3.82072739e-02 -1.28179923e-01 -1.87608272e-01 +9.57073271e-03 -3.07895597e-02 +1.82691664e-01 -1.23815849e-01 -3.56834903e-02 +1.41456068e-01 -4.63990076e-03 -1.12621121e-01 -5.97223779e-03 +7.86179751e-02 -7.86285549e-02 -1.14728734e-01 -7.67955631e-02 +1.36462688e-01 +1.74905546e-02 -1.17586330e-01 -1.22351713e-01 +1.67971384e-02 +9.54587758e-02 +7.47950301e-02 -1.20563947e-01 -3.48524936e-02 +1.11691713e-01 +1.13378778e-01 -1.50167704e-01 -1.43893495e-01 +1.11211367e-01 +7.54958168e-02 +1.45097941e-01 +1.82921156e-01 +1.11555181e-01 +1.66191578e-01 +1.96852595e-01 -1.41455144e-01 -8.71520787e-02 +1.59358859e-01 +1.78597629e-01 +1.04403034e-01 +7.48140216e-02 -1.40668035e-01 +1.92053169e-01 +1.35447541e-02 -2.81674862e-02 +5.14788404e-02 -7.42369071e-02 -2.41647009e-02 +8.26980695e-02 +3.78386267e-02 +1.42313465e-01 -8.19531083e-02 -1.91740140e-01 +1.83688194e-01 -6.99537843e-02 +3.89013886e-02 -9.96412262e-02 -4.64089662e-02 -5.15522771e-02 -1.51553750e-02 +1.69371530e-01 -1.72566146e-01 +1.64943218e-01 +1.20000094e-01 -1.06668554e-01 -1.22987807e-01 +1.80487290e-01 -1.41997086e-02 +8.50083381e-02 -1.62795439e-01 +8.43166709e-02 -5.83152659e-02 -7.37642795e-02 +1.38917893e-01 +1.01971701e-01 +1.11960940e-01 +1.90720722e-01 -5.07673919e-02 +1.81258097e-02 +2.26202205e-01 +1.40464559e-01 +1.12154344e-02 +3.71508114e-02 +4.97339480e-02 -1.88745171e-01 +1.61927626e-01 +2.01276645e-01 -1.84162483e-01 +9.05619338e-02 -3.05183232e-02 +1.25791192e-01 -4.47205789e-02 -1.57101780e-01 +1.30330697e-01 +5.65348417e-02 +8.29739962e-03 +9.72366929e-02 +1.37417808e-01 -2.57125378e-01 -7.89632425e-02 +1.12995252e-01 +1.92681462e-01 -9.50673036e-03 -1.30139574e-01 -8.00347403e-02 -2.95255408e-02 -2.23084062e-01 +2.40643416e-02 -1.57997251e-01 +6.48483559e-02 -2.21130289e-02 -4.52818796e-02 +2.49482915e-01 +1.08686365e-01 +1.27501026e-01 +1.94233507e-02 +6.04904629e-02 -2.62248725e-01 +4.73855063e-02 -1.99328244e-01 +2.17430174e-01 +8.67154375e-02 +9.80736539e-02 +1.79869458e-01 +1.54813185e-01 +2.27640748e-01 +2.33497053e-01 +6.81118369e-02 -5.06034270e-02 +1.41305789e-01 +4.33317095e-01 -7.22860098e-02 +1.59019828e-01 +1.49470448e-01 +1.60024807e-01 +1.96155205e-01 -1.30829215e-01 +4.46445674e-01 +3.87839638e-02 +2.26355001e-01 +1.44685239e-01 +1.62892491e-01 +6.29168330e-03 +1.07027099e-01 +7.39823282e-02 +8.45017731e-02 +1.14735849e-01 +1.96129948e-01 +2.80265033e-01 -2.31604978e-01 +3.59476626e-01 +1.19683467e-01 +3.73104453e-01 +2.42342100e-01 +1.46690935e-01 -1.23686381e-01 +1.89324737e-01 -1.03670806e-01 -7.41283223e-02 -1.58709735e-01 +1.38218760e-01 +4.95336615e-02 -7.68765807e-02 -6.77046971e-03 -1.87354892e-01 +1.09702960e-01 +4.12403792e-03 -1.37357544e-02 +1.10972747e-01 -1.05789788e-01 -8.35049083e-04 +1.84337068e-02 +2.30884086e-02 +4.22777571e-02 -7.70580173e-02 +1.30788967e-01 +1.48669511e-01 -1.51080653e-01 -2.54572593e-02 -2.07535420e-02 +1.50433704e-01 +1.13108918e-01 -1.05213851e-01 +7.63329938e-02 -5.01667559e-02 -6.28876835e-02 +3.46233875e-01 +2.63353854e-01 +2.99123049e-01 +1.13763742e-01 +2.66877711e-01 +2.83014253e-02 +1.07972972e-01 +2.18812227e-02 +3.06930751e-01 -3.71749513e-02 +9.41906050e-02 +1.69562325e-01 +2.13127777e-01 +1.52588729e-02 -8.89902264e-02 +1.10789455e-01 +6.03017509e-02 +2.39892691e-01 -6.08175546e-02 +6.93486184e-02 +4.90026549e-02 +5.67967668e-02 +2.72005741e-02 +3.12624604e-01 +2.44440228e-01 +3.01938862e-01 +2.40103111e-01 +6.15148172e-02 +4.31928188e-01 +4.93148379e-02 +4.17741746e-01 +1.75461277e-01 -1.87257782e-01 -2.27603376e-01 -2.88328044e-02 -9.28257257e-02 +1.81115359e-01 -4.81087305e-02 +1.79029495e-01 +1.09496497e-01 -1.39792711e-01 -1.50673717e-01 -2.73254812e-01 +5.45589104e-02 -3.51724446e-01 +1.02786839e-01 +5.36591187e-03 +2.98781723e-01 +1.96490064e-02 -4.42275777e-02 +1.99874267e-01 -4.96458150e-02 +2.52926618e-01 -7.58673400e-02 -1.89357907e-01 +7.97520652e-02 +6.85998052e-02 +2.16603093e-02 -3.12732399e-01 +7.55133480e-02 +1.49095818e-01 -1.99817538e-01 +2.96284328e-03 +5.34385517e-02 -3.28429937e-02 -1.13817982e-01 +9.32304710e-02 -3.50818746e-02 +5.57117462e-01 -3.04555651e-02 -4.91835065e-02 +7.66417161e-02 -5.78021407e-02 +2.88406432e-01 -2.38939315e-01 -5.60405776e-02 +2.39523947e-01 -1.60336599e-01 -2.34999266e-02 +1.05297022e-01 +3.56501900e-02 +1.88034818e-01 -5.21080336e-03 -2.18174830e-01 -4.76266742e-02 +1.07745886e-01 -1.14820533e-01 +1.82498798e-01 -6.59001991e-02 +1.39221758e-01 +4.75068577e-02 -3.16353321e-01 -1.41268507e-01 +1.97467178e-01 +1.09347358e-01 +1.33007228e-01 -1.19113110e-01 +1.63527131e-01 -1.10785507e-01 -1.83772996e-01 +2.85090283e-02 +1.98522329e-01 +1.08400680e-01 -1.62706152e-01 -7.52196386e-02 +4.41153497e-02 +4.92677353e-02 +3.66910473e-02 +1.44774066e-02 -1.42894715e-01 -2.31402088e-02 +6.46363720e-02 -1.93063989e-02 -9.83678848e-02 +1.52483523e-01 +5.77094406e-02 +3.15193497e-02 -2.21208000e-04 -7.60408714e-02 -1.30973473e-01 +1.69131860e-01 -4.15451191e-02 -2.44242642e-02 -3.39651033e-02 -1.11323982e-01 +9.83496457e-02 +1.74188048e-01 -1.62468255e-01 +6.23131078e-03 -7.21956566e-02 +1.81564495e-01 -9.75206867e-02 +5.31826913e-01 -5.93874007e-02 -3.20933424e-02 -1.63898729e-02 +4.57391471e-01 +8.53791684e-02 -1.95360661e-01 +2.01835275e-01 +3.64955276e-01 +1.72535051e-02 +8.53210092e-02 +1.93763524e-01 +3.35871845e-01 -1.15788758e-01 +1.47527665e-01 +9.14356336e-02 +2.29257375e-01 +1.86406359e-01 -1.05426461e-01 +4.47005391e-01 +1.46226570e-01 -9.49022360e-03 +1.30101964e-01 -1.73080668e-01 +2.45134950e-01 -9.06906202e-02 +3.50443751e-01 -4.07775864e-02 -2.15449512e-01 -2.35509574e-01 -3.72041040e-03 +2.68633217e-01 -2.59117067e-01 +3.11793000e-01 +1.42653063e-01 -2.41988078e-01 +4.80773002e-02 -7.32882544e-02 -5.87355010e-02 -2.50975668e-01 +2.60831714e-01 -1.07361220e-01 -3.45923007e-01 +7.55030289e-02 -8.60369671e-03 +7.15353116e-02 +4.01949063e-02 +3.01918656e-01 -6.10284731e-02 -1.04870982e-02 -3.48791152e-01 -1.45418271e-01 +2.02913821e-01 +4.55643684e-01 +3.28230672e-05 +1.07222319e-01 -1.00947171e-01 +1.14288092e-01 -5.39278314e-02 -1.95248991e-01 -2.51419768e-02 -4.25926000e-02 +1.83272481e-01 +4.36769314e-02 +2.13031054e-01 +7.69975781e-02 +5.23786321e-02 -7.52067566e-02 +2.72767216e-01 +6.80062696e-02 +1.96898311e-01 -1.81155058e-03 -1.68466736e-02 -4.16117162e-02 -3.37619036e-02 +5.64734079e-02 +5.96333966e-02 -1.04124118e-02 -4.27253405e-03 +7.04548359e-02 +6.35802150e-02 +1.96088254e-02 +9.83619988e-02 -2.06937566e-02 -1.11460827e-01 +3.70425619e-02 +1.84108183e-01 -2.33828602e-03 +5.78683801e-02 +3.46431993e-02 +1.57708496e-01 +5.99826910e-02 -1.15894750e-01 +1.14242405e-01 +1.10678777e-01 +2.88698473e-04 -1.27243817e-01 +1.24344252e-01 +1.35710582e-01 +4.22632098e-02 +1.96961910e-02 +7.87311271e-02 +5.56289293e-02 +1.11122519e-01 +1.37051105e-01 +1.11028373e-01 -7.80944303e-02 -1.72326490e-01 -1.27777457e-01 +1.49992421e-01 +1.15877844e-01 -9.07782018e-02 -1.03126042e-01 +1.19377546e-01 +1.54373541e-01 -7.88490009e-03 +6.72468543e-02 +1.13454483e-01 +1.21520162e-01 +1.92867238e-02 +5.57757877e-02 -1.62881166e-01 -7.53019303e-02 -6.44799471e-02 -5.95081337e-02 -7.40990639e-02 -1.15272954e-01 +1.72822595e-01 +1.50430650e-01 -2.56748724e-04 -9.26754177e-02 +2.61735567e-03 +7.10543171e-02 -1.24931037e-01 +7.42714554e-02 +2.33438939e-01 +9.64455679e-02 -7.51066282e-02 +7.27727711e-02 +2.31704056e-01 +1.59318417e-01 +7.05844387e-02 -3.02790180e-02 +2.31224418e-01 +1.65947974e-01 -8.55422467e-02 +4.96439040e-02 +1.47111073e-01 +1.91567198e-03 +2.60864720e-02 -5.44008687e-02 -1.30247260e-02 +2.17916742e-01 +1.74061984e-01 +8.17065910e-02 +6.77828565e-02 +1.75802976e-01 +3.48880589e-02 +2.99463160e-02 +2.76608896e-02 -1.23013675e-01 -1.08486295e-01 -6.10035136e-02 +2.17072830e-01 +2.61670947e-02 -1.36909112e-01 +4.53788135e-03 +9.88715291e-02 -1.31845832e-01 +3.84271145e-02 +1.55625954e-01 -4.42754366e-02 +1.03801526e-01 +1.24101847e-01 -3.31445523e-02 -1.93973884e-01 -8.13258886e-02 -9.31986794e-02 -2.14203268e-01 +1.09271042e-01 +4.68438119e-02 -2.80300360e-02 -8.41211528e-02 +2.82155544e-01 -7.87508562e-02 +7.81259686e-02 +1.71838149e-01 +3.31022963e-02 +1.44645587e-01 -2.24144459e-02 -1.52853861e-01 +3.11790928e-02 +1.40771016e-01 -6.96114451e-02 -1.28789902e-01 -1.61307782e-01 +1.08925961e-01 -1.61289256e-02 -9.00095478e-02 -1.01836234e-01 +1.44441262e-01 -1.04660451e-01 +1.10676236e-01 +1.25319704e-01 +2.02533424e-01 -1.85300723e-01 -1.00283131e-01 +4.83907722e-02 +3.57784219e-02 -1.60220280e-01 +3.75263654e-02 -1.08298279e-01 +1.95510477e-01 +2.25373879e-01 +1.50098270e-02 +4.40604426e-02 -3.85497836e-03 +1.64114237e-02 -8.87830928e-02 +6.44031242e-02 -1.26008198e-01 -1.91666558e-01 -1.09545626e-01 -1.73067346e-01 -2.43956633e-02 -1.19545043e-01 +3.69703546e-02 +1.81580707e-02 -1.33309036e-01 +1.17964959e-02 +8.14007670e-02 -1.42990589e-01 -9.16591883e-02 +6.36458918e-02 +1.26607373e-01 +1.82389006e-01 +1.92849278e-01 -1.67640477e-01 -6.89576119e-02 -8.54875669e-02 -4.61780801e-02 -1.56105608e-01 -6.73180446e-02 +1.70274109e-01 -5.95504902e-02 +1.92928404e-01 -1.04228787e-01 +1.54633179e-01 +5.48526831e-02 -3.97091508e-02 +1.12387255e-01 -1.84069842e-01 -5.77637590e-02 -1.75880104e-01 +1.38755545e-01 +1.12166531e-01 -2.11854443e-01 -4.12691608e-02 +1.48202896e-01 -1.45659879e-01 +1.65497124e-01 +1.11789197e-01 +1.23607866e-01 -9.41065997e-02 -1.69052016e-02 +1.52457505e-01 +1.65161248e-02 -8.85892212e-02 +2.49264147e-02 -9.44215730e-02 -2.10426236e-03 +3.47472616e-02 -4.12088037e-02 +1.66705489e-01 +2.06483707e-01 +1.36983827e-01 +4.54663411e-02 +1.63658738e-01 +3.77878584e-02 +6.54849559e-02 +2.11373195e-01 +1.05896154e-02 +3.54638584e-02 +1.10941797e-01 -2.65672147e-01 -1.33446246e-01 -1.16377719e-01 -1.70832649e-01 +1.00082368e-01 +5.53922169e-02 -5.09361885e-02 -9.28909108e-02 -6.81494325e-02 -2.53555039e-03 -4.74884175e-02 -3.65257949e-01 -1.32572412e-01 -1.30546793e-01 +2.37603456e-01 +1.43944770e-01 -1.76653415e-01 -1.51403502e-01 -1.93945289e-01 -1.52019292e-01 -9.61945802e-02 +5.99023886e-02 -1.12392239e-01 +2.68810034e-01 +6.04371279e-02 +1.07151426e-01 -2.90770113e-01 +1.30011424e-01 -9.53854173e-02 -6.31609783e-02 +8.67388174e-02 +8.67093820e-03 +1.64372787e-01 +1.16699487e-01 +2.07133919e-01 +3.60351130e-02 -8.47868323e-02 +3.57462056e-02 +9.14073735e-02 -1.08762033e-01 +1.95209831e-01 -1.47744104e-01 +1.80144906e-01 +1.06591836e-01 -1.12455375e-01 -2.25303229e-02 -4.98633236e-02 +2.29402155e-01 -1.14072658e-01 +2.12765202e-01 -5.68619110e-02 +2.04048738e-01 -1.06989473e-01 -1.27671093e-01 +6.07028045e-02 +2.79742390e-01 -1.37515068e-01 +1.32105872e-01 +1.87948003e-01 +1.90958142e-01 +1.88315392e-01 +4.72367853e-02 -1.32801414e-01 +2.49230256e-03 -9.30855945e-02 -7.90900365e-02 +9.58798677e-02 +1.94444939e-01 -7.17790201e-02 -1.31508946e-01 +1.58334270e-01 -1.06399707e-01 +4.80179340e-02 +1.66682035e-01 -5.61473295e-02 -1.14078857e-01 -4.07233424e-02 -1.66250795e-01 -7.30383545e-02 +1.72603682e-01 -5.47792204e-02 +1.44170806e-01 -7.22955838e-02 +2.65633613e-02 +8.47093761e-02 -3.30330394e-02 +1.28613889e-01 -1.88210551e-02 +1.22814633e-01 +5.25039397e-02 +8.55801105e-02 +1.32449001e-01 +9.47100818e-02 +5.98518550e-02 -1.06568575e-01 -6.18551150e-02 +1.88616991e-01 -8.15251395e-02 +6.95654899e-02 -3.18571553e-02 -1.38734668e-01 +8.48899111e-02 -9.26193446e-02 +2.46672451e-01 -3.45059559e-02 -1.61892444e-01 +1.07671194e-01 +7.80002847e-02 +2.91308444e-02 -6.40904531e-03 -5.41133769e-02 -7.64225349e-02 +1.24432817e-01 -5.63325919e-02 -1.88754395e-01 +2.03624174e-01 +1.40532747e-01 -1.74890389e-03 +1.02976583e-01 -9.25721973e-03 -8.57024938e-02 -6.21348545e-02 -3.14962789e-02 -8.43073335e-03 +8.82111415e-02 +6.51589781e-02 +1.67567968e-01 -7.43181184e-02 +7.09101111e-02 -2.36320421e-01 +8.91664326e-02 +1.86200514e-02 +1.54968396e-01 -6.83135018e-02 -1.27903223e-01 +7.30273128e-02 -4.83387187e-02 +3.47209796e-02 +1.71324179e-01 +2.26610098e-02 +1.02769800e-01 -8.86646360e-02 +1.35902509e-01 +2.11468279e-01 +4.98707406e-02 +6.63421080e-02 -8.99628326e-02 +2.39203172e-03 -1.14770450e-01 -5.62678799e-02 +8.18308294e-02 +3.25103998e-01 +6.61465079e-02 -2.00724557e-01 +3.86338890e-01 -6.49775118e-02 +2.33927891e-01 -1.53851330e-01 +2.11073011e-01 +9.74902287e-02 +1.95069492e-01 +9.96706784e-02 +1.52835295e-01 +1.42933875e-01 -2.88682044e-01 -1.02620795e-01 +9.70764179e-03 -1.01777665e-01 +4.33443114e-02 -8.15170184e-02 -1.76545739e-01 -1.04008928e-01 -1.38013929e-01 -2.35990688e-01 +2.03298986e-01 -1.55969054e-01 -1.50061563e-01 +1.53945461e-01 +1.72780216e-01 -1.27013549e-01 -2.39156768e-01 -1.26564965e-01 +1.00139827e-01 -2.63802737e-01 -1.19699113e-01 -1.60037309e-01 -1.94348440e-01 -1.43925697e-01 +6.47939518e-02 -1.62415877e-01 -3.53075862e-02 +1.00310251e-01 -6.59998804e-02 -3.27270478e-02 +1.90217987e-01 +3.15786630e-04 +4.95991744e-02 -2.76971981e-02 +1.41801819e-01 -1.70455053e-01 -1.59000009e-01 -1.75048351e-01 -3.47159873e-03 +1.84416950e-01 -7.88353533e-02 +2.46950537e-02 +5.68544455e-02 -9.41330716e-02 +1.04793489e-01 -1.44976869e-01 -4.12733555e-02 +4.62644435e-02 -1.29383001e-02 +4.49895347e-03 -1.28374204e-01 -9.14293155e-02 +1.51935875e-01 +5.27639911e-02 +3.48518649e-03 -1.11568151e-02 -1.73776999e-01 -1.47012070e-01 -8.74223858e-02 -1.23557091e-01 -1.44583955e-01 -1.77110285e-01 +2.88120043e-02 +2.14598849e-01 -1.94716886e-01 -3.55411097e-02 -8.30575600e-02 +4.13916111e-02 -2.32574880e-01 +1.15004115e-01 +1.38954490e-01 -2.22236350e-01 -5.54361492e-02 -6.54762834e-02 +1.87581971e-01 -1.05507776e-01 -1.88565299e-01 +5.93164153e-02 +6.71221390e-02 -6.45059766e-03 +3.92971486e-02 -5.27866744e-02 +5.34856087e-03 +1.66179631e-02 -1.71381593e-01 +3.96473780e-02 -4.79094386e-02 +1.25664622e-01 +1.55356914e-01 +4.99737896e-02 +1.86132845e-02 +2.18422964e-01 -7.29053319e-02 +6.82471097e-02 -2.13470235e-01 -3.54879946e-02 +3.12361211e-01 -4.52901237e-02 +1.98632628e-01 +2.28710726e-01 -3.33399504e-01 +2.49351576e-01 +3.91295552e-02 -2.36457184e-01 -2.37404898e-01 +5.33712879e-02 -1.09874986e-01 +1.12082876e-01 -1.53492153e-01 +1.16780490e-01 -1.15007125e-01 -1.84422821e-01 +2.26242587e-01 +4.75165155e-03 -2.26864684e-02 +1.45981252e-01 -1.25770479e-01 +1.45580873e-01 +3.77501012e-03 -1.57231495e-01 +3.08221459e-01 +2.22410681e-03 +5.44327125e-03 +9.97856036e-02 +1.04753830e-01 -3.24070938e-02 -4.90995347e-02 -1.78123489e-01 -2.13797782e-02 +1.19363971e-01 -1.38708398e-01 +2.08524372e-02 -2.50688404e-01 -9.96809974e-02 +2.72688102e-02 +7.48479217e-02 +8.01169500e-03 -1.01419911e-01 -1.17533691e-01 +6.73583969e-02 -1.50656760e-01 -1.42217696e-01 -1.02694891e-01 +1.54875323e-01 +1.02837011e-03 +8.88454169e-03 +1.95730165e-01 -8.27553347e-02 -9.77433026e-02 +1.33218661e-01 -1.43014446e-01 +7.09742084e-02 -1.61087021e-01 -1.86791286e-01 -2.16141969e-01 +5.20545878e-02 -1.79587573e-01 +1.23795144e-01 -8.83903131e-02 -1.14787661e-01 +2.29745433e-01 +1.67296007e-02 +1.15233980e-01 -1.57129809e-01 +3.05229109e-02 +1.04495771e-01 +4.01206724e-02 -7.93211684e-02 +1.71325460e-01 -1.87359527e-01 -8.00364465e-02 -4.98318709e-02 -1.73921138e-01 -1.27011254e-01 -1.45741463e-01 -3.18116546e-02 +2.60281507e-02 +1.08715951e-01 +1.06406935e-01 +6.20239265e-02 -8.57034475e-02 -1.00234500e-03 -4.52118814e-02 -6.12173304e-02 +8.38769600e-02 +1.33567182e-02 +1.03561305e-01 -7.70731568e-02 +1.38224751e-01 +1.78008765e-01 +1.08501442e-01 -4.24566269e-02 +2.21613571e-01 -1.67404994e-01 +1.74891382e-01 +1.45869628e-01 +1.14921324e-01 -1.82709919e-04 -1.36578143e-01 -1.88963562e-01 +1.17539912e-01 -6.81473240e-02 +9.48328003e-02 -1.38234213e-01 +2.22511277e-01 -1.99399024e-01 +5.21421954e-02 +1.00773759e-02 -1.63330078e-01 -7.36764371e-02 +1.25804663e-01 +1.47424832e-01 +1.85001090e-01 -1.11740857e-01 +2.12734342e-01 -1.97861698e-02 +1.35093465e-01 +4.53573391e-02 +1.11407958e-01 +9.95221883e-02 -2.08482787e-01 -6.80421218e-02 -4.78715822e-02 -8.18925798e-02 +1.96954235e-01 -1.93690181e-01 +2.26871341e-01 +3.61478813e-02 +7.65115172e-02 -7.78194293e-02 +1.13731315e-02 -2.92326242e-01 -2.86296457e-01 +1.56138111e-02 -6.24655560e-02 +1.63612068e-01 -1.71909190e-03 +1.49043366e-01 -1.51477754e-01 +2.96374643e-03 +7.30872378e-02 -1.60483330e-01 -2.84615196e-02 -4.36900705e-02 +2.16117986e-02 +2.17162803e-01 -9.38265249e-02 -1.91422689e-04 +1.03334151e-01 -3.86297584e-01 +5.85376248e-02 +1.12537988e-01 +1.85458258e-01 -2.83436682e-02 +1.74285054e-01 +1.56669194e-05 +3.16959828e-01 +1.86959535e-01 +1.92949608e-01 +1.26345363e-02 +1.07275449e-01 -7.89778866e-03 -5.35102896e-02 -1.19693883e-01 +2.40538180e-01 +8.30619931e-02 +9.78434086e-02 -7.25224018e-02 +1.61264211e-01 +1.25922889e-01 -1.32512599e-01 -3.08077633e-02 +1.55671462e-01 +1.62510738e-01 -9.25458595e-02 +3.08187008e-01 -1.30388185e-01 +4.21082638e-02 -6.22209720e-02 -9.15755555e-02 -7.83571377e-02 +2.56627142e-01 +9.30107981e-02 +9.66507718e-02 -8.72778799e-03 +1.55611753e-01 +1.21513128e-01 -3.88031825e-02 -4.03992198e-02 -8.95043537e-02 -2.67863944e-02 -1.36666045e-01 +1.56455874e-01 -1.30585536e-01 +1.62476692e-02 -2.68017706e-02 +5.25965132e-02 -1.36774391e-01 +1.48137167e-01 -4.73924801e-02 -1.28050268e-01 -4.46436144e-02 +1.51517034e-01 +1.01423180e-02 -1.23958804e-01 -1.63389474e-01 -6.93867356e-02 -1.12283845e-02 +1.15344331e-01 -1.25353888e-01 -1.30283996e-01 +1.49474770e-01 +1.62504211e-01 -1.18381836e-01 +8.26910660e-02 +1.47114113e-01 -4.99240160e-02 -3.63832177e-03 +3.52749638e-02 +7.58021250e-02 +6.20424375e-02 -1.30086869e-01 -3.71978432e-02 -6.61955252e-02 +7.89607316e-02 +2.13039517e-01 +8.51062909e-02 +2.02632383e-01 -3.89347635e-02 +2.27482870e-01 +4.94077429e-02 +2.71837741e-01 +1.45216972e-01 -8.35874758e-04 +1.47897765e-01 -1.06653482e-01 +5.88821396e-02 +2.09578142e-01 -1.23266829e-02 +1.54337257e-01 +1.01215243e-02 +9.46956053e-02 +4.55932841e-02 -1.16910242e-01 +1.91138640e-01 +8.05977657e-02 -9.56055745e-02 -1.18565194e-01 +8.73263255e-02 -5.19926958e-02 -2.46297017e-01 -1.08710833e-01 +1.79091524e-02 +6.01051450e-02 +1.98975489e-01 +1.53429627e-01 -2.50987053e-01 +2.74883118e-03 +6.82789460e-02 +6.13211421e-03 -7.54642263e-02 +6.47228956e-02 -1.33832797e-01 +1.59771547e-01 -2.50975341e-01 +1.07385851e-01 +8.60185474e-02 -9.53944921e-02 -1.94347242e-03 +2.62160182e-01 -1.83744043e-01 +2.35942855e-01 -2.62503833e-01 +1.16949253e-01 -8.25160462e-03 -5.42408787e-04 -2.18940116e-02 -2.15700924e-01 +1.07054874e-01 +2.02184394e-01 
#Parameter# /vanilla-lstm-builder/_1 {128,32} 65537 ZERO_GRAD
+1.31063566e-01 -5.34855016e-02 -1.56008452e-01 -5.72804958e-02 +1.43289030e-01 -1.99527055e-01 +4.39905860e-02 +1.44700883e-02 +6.95620403e-02 +4.33147997e-02 +1.90969333e-01 +1.38520494e-01 +5.53879328e-02 -2.21342351e-02 +1.38938114e-01 -2.37253591e-01 +8.88828859e-02 -3.20871063e-02 -2.35107336e-02 +3.37130502e-02 -4.15715985e-02 +7.79963136e-02 +7.18691945e-02 +1.26354471e-01 +1.96392074e-01 +9.01846513e-02 +2.43508872e-02 -1.85297191e-01 -6.41278550e-02 -1.98816940e-01 -1.18174888e-01 -1.02208868e-01 +6.15014434e-02 -3.81836742e-02 +1.54909879e-01 +4.05746289e-02 -4.96362671e-02 +8.74406844e-02 -1.33412257e-01 -2.94840317e-02 -1.66828334e-01 -1.63578793e-01 +1.65484339e-01 +1.54035002e-01 +1.51604295e-01 -2.03034163e-01 -3.63261104e-02 +8.24209675e-02 +9.48600098e-02 +6.80420101e-02 +5.14868125e-02 +4.86958027e-02 +2.41036876e-03 +1.60172343e-01 -1.21141061e-01 +7.60934204e-02 +1.70669407e-01 +1.28070503e-01 +1.26499489e-01 +4.81896289e-02 -1.01098500e-01 +4.71251979e-02 +6.27242103e-02 -1.68833256e-01 -2.16667116e-01 +6.86763301e-02 +9.07093659e-02 +9.69808027e-02 -7.32682422e-02 +5.67210466e-02 -1.67143703e-01 -1.86651573e-01 -1.16945542e-01 +1.50747493e-01 +6.44537210e-02 -5.66742159e-02 +7.50146434e-02 -9.67790335e-02 +8.23001564e-02 -5.03842048e-02 +5.70981726e-02 +1.68445453e-01 -4.02460620e-02 +1.23452470e-01 +1.40181914e-01 +5.85275218e-02 -2.77167875e-02 -1.62950948e-01 -8.72590318e-02 -1.18507430e-01 -6.64943233e-02 +6.61788136e-02 +8.58394355e-02 +6.25561476e-02 -1.22183766e-02 +1.73796453e-02 -2.28687569e-01 -1.42252609e-01 -1.15259238e-01 +1.36394471e-01 +2.31037587e-01 -7.19813257e-02 -5.06831743e-02 +1.24564797e-01 +1.91729255e-02 +5.29148579e-02 +1.80534184e-01 -8.87095109e-02 +2.87277866e-02 -1.48490220e-01 -1.87188953e-01 +1.40888557e-01 +9.16583017e-02 +1.85885698e-01 -9.15187821e-02 -6.30072951e-02 +2.72161532e-02 +1.45109728e-01 -2.78326273e-02 +1.86664928e-02 -3.27786095e-02 -9.19440836e-02 +1.99927241e-02 +8.09728447e-03 -7.73706436e-02 -6.10053837e-02 -8.63332227e-02 +1.91297680e-01 +1.69522199e-03 +1.13881394e-01 +7.36894608e-02 -1.69519737e-01 +1.39891088e-01 +1.65746585e-01 +1.79720327e-01 +9.46449041e-02 -1.40065894e-01 -1.97045654e-01 -1.25097588e-01 -1.93550020e-01 -1.56400785e-01 -1.46229744e-01 -2.11844966e-02 -3.22132260e-02 +4.30257954e-02 +5.63567020e-02 -1.79781631e-01 +9.45461467e-02 -1.89809531e-01 +1.57130122e-01 +2.48471666e-02 -6.04853891e-02 +1.55356511e-01 -1.08929582e-01 +1.84521168e-01 -1.69009522e-01 +1.03053255e-02 -6.10709935e-02 -1.30347118e-01 -1.67228222e-01 -8.33305866e-02 +1.36402890e-01 -1.38863981e-01 +3.74412276e-02 -4.27621566e-02 -9.59106609e-02 -3.93540971e-02 +1.75243556e-01 -7.55904466e-02 -1.09362654e-01 -4.75561954e-02 +1.16809718e-01 +1.15749374e-01 +1.16847873e-01 +1.36239305e-01 -7.99551308e-02 -1.09430306e-01 +1.52781472e-01 -1.69173032e-02 +1.90452993e-01 +1.73886701e-01 +4.55661304e-02 +1.28024504e-01 +1.38236761e-01 +1.83916077e-01 +2.03183759e-02 +7.25822756e-03 -7.55985230e-02 -1.82722434e-01 +8.39772895e-02 -8.93751532e-02 +4.19824533e-02 +3.05000767e-02 +1.71787798e-01 -1.05878755e-01 +1.54675215e-01 -2.08956614e-01 +9.14649516e-02 +5.96794626e-03 -1.70212746e-01 -1.29461810e-01 +2.99868751e-02 +1.91227421e-01 -2.01290578e-01 -1.83646172e-01 -1.59028798e-01 +1.53966680e-01 -8.02322701e-02 +1.29700124e-01 +1.60581507e-02 +7.11312005e-03 -1.31893486e-01 -6.31406158e-02 +6.41292259e-02 -9.03447345e-02 +7.45119303e-02 +1.67025149e-01 +1.76744431e-01 +1.04391910e-01 +1.23726532e-01 +3.22418362e-02 -1.44634992e-01 +5.18540740e-02 +1.18612580e-01 -3.59486900e-02 +8.81698281e-02 +4.18562852e-02 +3.89314070e-02 -2.70426702e-02 +9.28825811e-02 +1.57585591e-01 +1.35989919e-01 -1.99663848e-01 +2.40667790e-01 -1.04071803e-01 +2.17201874e-01 -7.03329146e-02 -4.24651913e-02 -1.92985117e-01 -4.46793139e-02 -9.55894664e-02 -5.43857254e-02 -7.72637129e-02 +9.54653993e-02 -1.11133873e-01 +2.52325982e-02 -8.00189525e-02 -5.93744516e-02 -2.07817599e-01 +2.03856751e-02 -1.60359815e-01 +2.79744864e-02 -1.11436740e-01 +1.05930790e-01 -3.83553244e-02 +4.61958461e-02 -1.20798489e-02 -3.74795124e-02 +7.42622912e-02 -4.25895303e-02 -1.54512599e-01 -2.46493630e-02 -7.06236660e-02 -2.22261131e-01 +1.14271427e-02 -4.71402556e-02 -6.52021840e-02 +9.38843638e-02 +1.44127071e-01 -4.05452773e-02 -2.90689734e-03 -1.53924152e-01 -1.37431115e-01 -8.99025500e-02 -1.74104974e-01 -2.28548855e-01 +1.10656098e-01 -4.50032130e-02 -1.47700697e-01 +9.30843949e-02 +1.47932842e-01 +1.11914240e-01 -1.21139893e-02 -7.66056404e-02 -1.66562875e-03 -1.55192250e-02 -1.88117579e-01 -1.67271152e-01 -1.26582116e-01 -1.69593424e-01 -1.10932127e-01 +3.88818122e-02 +1.36244997e-01 +1.62689582e-01 -4.73363288e-02 -1.83349624e-01 +1.22821577e-01 +1.00519530e-01 +6.43693730e-02 -4.10114080e-02 -7.41854608e-02 -9.51135755e-02 -4.47727740e-02 -1.33912480e-02 +7.22988471e-02 +1.56636983e-01 -1.90087467e-01 +4.26791869e-02 -4.25563604e-02 -8.56044888e-02 -4.14261185e-02 -1.86697803e-02 +4.64551076e-02 +5.26536964e-02 -1.02632895e-01 -1.62089288e-01 +1.12995930e-01 +1.30746543e-01 +1.06013216e-01 +1.50842756e-01 -6.76331595e-02 +1.15524746e-01 -1.99126706e-01 +1.29938915e-01 +2.07573891e-01 -8.43774602e-02 -6.49009943e-02 -1.65856183e-01 -9.22155753e-02 -6.13394044e-02 -7.80324265e-02 +4.20201607e-02 +2.60996819e-01 -1.55571908e-01 -1.41577676e-01 -6.44659698e-02 +3.60171683e-02 -6.73838779e-02 -6.38282448e-02 -1.89127419e-02 +9.11169872e-02 -6.01000264e-02 +1.68247931e-02 -1.17676251e-01 -8.21573213e-02 +2.01573983e-01 -6.86923508e-03 -2.02018753e-01 -5.64345950e-03 -5.86188436e-02 -1.13921270e-01 +5.33015952e-02 -4.37050834e-02 +1.65957272e-01 -1.19751640e-01 +1.26736715e-01 -1.31461635e-01 -6.96199294e-03 +9.66109894e-03 -7.76962563e-02 +1.80199504e-01 +7.60008320e-02 +5.73446527e-02 +2.17302844e-01 +1.58122674e-01 +1.90183848e-01 +7.60016637e-03 -1.01370022e-01 +6.32599071e-02 -5.86500275e-04 +2.81303644e-01 +1.03471920e-01 -8.71238858e-02 +1.42296582e-01 +1.52508900e-01 -1.71443537e-01 -6.99424148e-02 -9.75169092e-02 +1.37302995e-01 -1.55197345e-02 -1.86292022e-01 -1.04875393e-01 +7.14571401e-02 +4.19984125e-02 -1.08854473e-01 -5.27050607e-02 +9.12032425e-02 +8.87995306e-03 +3.87309454e-02 -2.75315028e-02 -1.20839346e-02 -6.62928745e-02 -1.06753364e-01 -1.48361921e-01 -9.25526246e-02 +1.33027285e-01 +9.13679078e-02 -1.61726177e-01 +5.53696416e-03 +1.96397066e-01 +1.09442800e-01 -1.14369497e-01 -9.44322324e-04 -1.64499372e-01 +1.65371627e-01 -4.65162806e-02 -3.13932709e-02 +6.70043081e-02 -1.34368762e-01 -1.30719423e-01 -1.36007503e-01 -4.34034765e-02 +6.21597543e-02 -1.70596957e-01 +4.06698547e-02 -3.64819393e-02 +1.46672308e-01 +1.60815269e-01 -2.63720448e-03 +3.46147977e-02 +1.16826013e-01 -8.25234205e-02 +1.14761047e-01 +1.92891181e-01 +4.58196700e-02 -1.06843926e-01 -7.10486174e-02 +4.85486202e-02 -4.32599001e-02 +1.73801675e-01 -1.26291901e-01 +1.90778360e-01 -1.84079662e-01 -9.71306115e-02 +6.80682659e-02 -2.36770082e-02 +9.95077118e-02 -8.65465254e-02 -5.92581742e-02 +1.52817816e-01 -9.66749415e-02 -1.62969768e-01 +1.20340221e-01 +1.25178620e-01 -1.41698837e-01 -6.88882219e-03 +8.13492984e-02 +1.79757848e-01 +7.49747902e-02 -6.88727126e-02 -6.62674829e-02 +7.85844922e-02 +1.61623552e-01 +1.43330231e-01 +1.49738237e-01 -1.41313538e-01 -7.41637647e-02 +8.74069855e-02 -1.50064513e-01 -9.14962962e-02 +1.44149601e-01 -3.79924290e-02 -3.32718492e-02 -8.61662477e-02 -5.62284775e-02 +1.71450227e-01 -1.66549504e-01 -1.07306480e-01 -3.89719382e-02 -4.49891016e-02 +1.11562543e-01 -1.28215119e-01 -1.33491218e-01 -1.43000215e-01 -1.55173223e-02 +1.94454808e-02 -3.94216143e-02 -8.93169716e-02 +1.92564234e-01 +1.20441772e-01 +1.02606371e-01 +7.80021101e-02 -1.26486361e-01 -1.00827746e-01 +1.59948871e-01 -9.95667949e-02 +8.48832726e-02 +1.98026344e-01 -1.77003182e-02 +5.98305762e-02 -4.49370295e-02 +1.07423790e-01 -2.54626852e-02 -1.17275164e-01 -2.67514605e-02 -8.54303762e-02 -1.39186576e-01 -8.76814872e-02 +2.21630204e-02 +2.05781311e-01 -1.44948035e-01 +9.25387666e-02 +9.25513282e-02 +1.53811425e-01 +8.51775240e-03 +1.15678295e-01 -1.85745563e-02 -1.57799825e-01 -7.74652511e-02 +1.71773627e-01 +1.04423746e-01 -8.91258717e-02 -3.25576179e-02 +7.97917321e-02 +9.26165357e-02 +1.43804327e-01 +3.47691104e-02 +2.10305333e-01 +6.61848951e-03 +2.19436601e-01 +7.50016496e-02 +7.07003623e-02 -2.92490833e-02 -2.12751612e-01 +7.33441561e-02 -2.16169953e-01 -1.62239194e-01 -2.07655698e-01 -1.26144499e-01 +1.71736374e-01 -1.86572269e-01 -3.08017097e-02 -1.31072715e-01 +1.56791538e-01 +5.56368679e-02 +3.68519910e-02 +1.75791785e-01 +1.43029526e-01 -4.38114479e-02 -2.95397593e-04 -4.62051705e-02 -6.22277446e-02 +3.53005305e-02 +2.78592020e-01 -8.46886337e-02 -1.71994939e-02 -2.14211062e-01 +1.38195604e-01 +1.89242642e-02 +2.16102511e-01 -9.19395238e-02 +1.76967587e-02 +1.57000646e-01 -1.35571525e-01 -1.20240606e-01 +5.72725050e-02 -7.57169202e-02 +2.61856485e-02 +1.71108544e-01 -2.11815730e-01 -7.63956010e-02 +7.40272254e-02 +1.30745526e-02 +2.22641751e-01 -8.03967640e-02 -1.79060668e-01 -4.80278432e-02 +2.32728869e-02 +1.30621925e-01 +1.54631093e-01 +1.37314707e-01 -2.37459433e-04 -8.04036185e-02 +1.56659493e-03 -2.47051120e-01 +1.04775233e-02 +7.59106129e-02 +5.51594980e-02 +1.76744804e-01 +7.65998662e-02 -5.65739810e-01 +8.06522891e-02 +3.61981951e-02 +1.21682048e-01 -2.08745614e-01 -2.60911584e-01 +1.36081293e-01 +7.03886598e-02 -5.56586027e-01 -9.82973650e-02 +1.10035226e-01 -4.34125692e-01 +2.12041572e-01 +3.66884544e-02 +6.74582645e-02 +7.36260265e-02 -2.08084002e-01 +1.29330337e-01 +4.25666720e-02 +1.91600006e-02 -2.48816013e-02 -1.59397274e-01 -1.12884186e-01 -1.69616103e-01 +9.72964540e-02 +1.68843716e-01 -6.73805252e-02 +1.08796299e-01 +2.45987028e-02 +6.21728115e-02 -3.12863410e-01 -3.38994600e-02 +1.68486908e-01 +2.20629405e-02 +1.18132979e-01 +2.77137846e-01 -3.63420695e-01 -3.73682022e-01 -1.69186622e-01 -2.70486325e-01 -2.48263866e-01 -1.75693408e-01 +1.85578391e-02 +5.12074649e-01 -2.78219879e-01 +6.96802139e-02 -4.41121966e-01 -1.58679038e-01 +1.56005099e-01 +1.30215555e-01 -1.99015997e-02 +3.96431834e-01 +3.10065076e-02 +8.50698724e-02 -1.43292136e-02 +1.84542060e-01 +1.74384877e-01 -5.96953779e-02 +3.66916060e-01 +3.32915813e-01 -8.91145691e-03 -1.36533558e-01 +1.33525044e-01 +6.55704597e-03 +1.47257164e-01 +2.00925067e-01 +6.98377751e-03 -1.17180496e-02 -8.41794256e-03 -5.56337051e-02 +1.29278049e-01 +6.83215037e-02 +2.17160076e-01 -1.93722799e-01 +6.59828708e-02 -4.19379883e-02 -6.96780905e-02 +1.67933509e-01 -5.65561764e-02 -1.41011253e-01 +1.37784528e-02 +1.13805361e-01 +4.60022800e-02 -1.37170196e-01 +2.07286272e-02 -1.72730818e-01 +8.71259794e-02 -1.43334195e-01 +1.43943280e-01 +1.17872944e-02 +1.07917249e-01 +5.32321781e-02 +9.11473110e-02 +5.75986952e-02 -6.83077127e-02 -1.50173962e-01 +4.51631360e-02 +1.29507678e-02 +1.47230864e-01 +1.77820191e-01 -1.37783080e-01 +1.58316195e-01 -1.26348540e-01 -1.10075407e-01 +1.66202351e-01 +1.11593597e-01 +6.85498044e-02 +1.88095585e-01 +1.15612380e-01 -1.24589093e-01 -2.51033586e-02 +2.69948188e-02 +1.18709750e-01 -1.96713388e-01 -1.06112100e-02 +1.48266599e-01 -1.80407718e-01 -9.55486223e-02 +5.52433878e-02 -1.37038663e-01 +1.43490266e-02 +1.12736367e-01 -8.34562182e-02 -1.33097902e-01 +7.53100812e-02 -1.06574081e-01 -1.08869366e-01 +9.09816027e-02 +1.29106373e-01 -2.03514826e-02 +9.53582972e-02 +1.93078711e-03 +4.76240590e-02 -1.06729858e-01 +9.12901834e-02 +1.45840764e-01 +2.07190216e-01 +1.20011680e-01 -2.63554752e-02 -3.69325653e-02 +1.97134852e-01 -1.67181373e-01 -1.44647986e-01 +4.95739542e-02 +1.05156861e-01 +4.72656591e-03 +3.76981460e-02 -1.25442639e-01 -3.67833488e-02 +1.58563420e-01 +1.29205465e-01 +7.53878281e-02 -1.32615343e-01 +1.90736175e-01 -1.27752915e-01 +1.36318460e-01 -9.74270403e-02 +1.43910721e-01 +5.78648709e-02 -9.14460272e-02 +4.44376878e-02 -8.36366937e-02 -7.41652027e-02 -3.37526128e-02 -1.65096581e-01 -1.62810430e-01 -1.54052064e-01 -8.08253661e-02 -1.49585038e-01 +7.37354308e-02 -1.14958137e-02 +9.32037532e-02 -1.85231119e-01 +1.06223695e-01 -1.34398520e-01 -1.13557480e-01 +4.76699546e-02 +3.50713208e-02 -1.50118053e-01 +3.85922231e-02 +1.06606096e-01 -1.35415971e-01 -8.13462362e-02 -1.74905751e-02 +1.62595063e-01 +1.87359303e-02 +2.77990028e-02 +8.56013596e-02 +2.15020314e-01 -1.51697040e-01 +3.47569995e-02 +1.69162244e-01 +1.15933623e-02 +5.65837696e-03 +1.09553970e-01 +1.26002967e-01 +6.92246109e-02 -3.50922421e-02 +1.82269439e-01 -1.22222677e-01 +1.43434361e-01 +7.12200925e-02 +1.30893886e-01 +1.36496902e-01 +2.06551105e-01 -2.33701207e-02 +4.61101979e-02 +1.32255271e-01 -1.20304860e-01 +5.72598912e-02 +1.41735360e-01 -4.85426597e-02 +1.85540900e-01 +5.40404320e-02 -7.99729005e-02 -5.14292754e-02 -8.82167965e-02 +6.58115298e-02 +5.38737886e-02 +1.12488434e-01 -5.33258133e-02 -5.65051772e-02 +6.51944578e-02 -1.76016077e-01 +1.51224867e-01 -1.33858755e-01 -7.01194108e-02 -1.27959788e-01 -7.99207389e-03 -7.35536814e-02 -3.44746672e-02 -4.11803015e-02 -1.40982285e-01 -1.47558544e-02 +7.57481977e-02 +4.51670103e-02 +1.74798116e-01 +1.03062823e-01 +3.58028784e-02 +6.65644333e-02 -9.20441467e-03 +1.51886180e-01 +7.82887116e-02 +1.77227899e-01 +3.98768820e-02 -8.37070867e-03 -1.50466919e-01 -3.29674147e-02 +1.61137745e-01 +5.82628250e-02 -1.24881886e-01 +1.92351729e-01 +1.25556722e-01 +2.46972218e-01 -9.86845978e-03 +4.38967301e-03 +2.24796869e-02 -8.82333294e-02 +4.85283136e-02 -9.63791683e-02 +8.20838585e-02 +5.41538000e-02 -6.22196123e-02 +1.25178888e-01 -1.18680932e-01 -9.46053118e-02 -1.46824613e-01 -1.14824586e-01 +9.89284366e-02 -1.34843113e-02 -1.28375730e-02 +9.66066569e-02 -4.13993374e-03 -1.35411441e-01 +1.84237599e-01 -7.51307830e-02 +1.45373404e-01 +1.12106703e-01 +1.55625772e-02 +1.16592884e-01 +1.87859625e-01 -1.29291147e-01 +8.71903151e-02 +2.91720122e-01 -5.13668209e-02 +3.85114439e-02 -2.26030409e-01 +6.86195046e-02 +2.08218306e-01 -1.10918991e-01 -1.32658631e-01 +1.36265591e-01 -1.18266657e-01 -8.57215300e-02 -5.22139892e-02 -1.70413107e-01 +2.95601487e-02 +2.12585717e-03 +2.22775880e-02 +1.12602316e-01 -2.05353782e-01 +1.18604109e-01 -1.24505043e-01 -9.18695182e-02 +1.67726979e-01 +1.90145388e-01 -1.82212770e-01 +1.80532843e-01 -8.04572478e-02 -1.84722524e-02 -1.29209429e-01 +9.82511863e-02 +8.55899602e-03 -5.44719137e-02 +4.16083187e-02 +1.68212190e-01 +1.49550717e-02 -7.69108385e-02 -1.42099475e-02 +7.59830922e-02 -1.21160731e-01 +4.88451496e-02 +1.23399183e-01 +1.44356623e-01 +1.42313257e-01 -9.90064889e-02 +4.17166166e-02 -7.72476420e-02 -1.92203932e-02 +6.81572780e-03 -1.11721857e-02 -6.44512591e-04 +1.16008803e-01 -1.06849417e-01 -1.51959226e-01 -1.40356287e-01 -1.76169910e-02 +4.03418355e-02 +3.77468057e-02 +4.77212258e-02 -5.14861122e-02 -1.90723106e-01 +7.59523287e-02 +1.69131055e-01 -1.03778139e-01 +1.05822578e-01 +3.62708140e-03 -6.82232678e-02 +8.19992647e-02 -1.01487920e-01 +8.94620419e-02 -1.52259469e-01 -2.59944778e-02 +1.27624825e-01 -6.04990730e-03 -1.30271569e-01 +1.41828224e-01 +1.60823584e-01 -8.13415572e-02 +1.25637382e-01 -1.55812755e-01 +1.30853593e-01 -5.34347165e-03 -1.77260950e-01 +1.92299694e-01 -1.01567976e-01 +1.34978995e-01 -1.53290004e-01 -1.41632780e-01 -1.35643393e-01 -5.80257811e-02 +1.23019561e-01 -5.36223389e-02 +9.43150893e-02 -9.19996202e-02 -9.60959271e-02 -1.82163835e-01 +1.81619510e-01 -5.53022102e-02 +9.52544063e-02 +1.70242414e-01 -1.38941437e-01 +6.66943416e-02 -2.10106047e-03 -7.09928349e-02 -1.48455277e-01 -1.31942645e-01 +8.46370831e-02 -5.43883629e-02 -1.77919909e-01 -6.57329187e-02 +5.68028614e-02 -9.44596380e-02 -1.41456723e-01 +9.68531817e-02 -2.08393961e-01 +1.90870851e-01 -1.12008505e-01 +1.94835767e-01 +2.21368566e-01 -1.08586073e-01 +1.09313335e-02 +5.49842268e-02 -1.22070611e-01 -7.76269436e-02 +1.93682164e-02 +9.75477919e-02 +1.44107565e-01 -1.33542076e-01 -1.14154478e-03 +9.89959091e-02 +1.31335959e-01 -3.00522484e-02 +1.02172323e-01 +5.83903119e-02 +1.11894481e-01 +3.36854137e-04 +1.79914773e-01 -1.48619264e-01 -1.67771876e-01 -2.39491671e-01 +1.41908154e-01 +2.39908956e-02 -1.26409307e-01 -1.74433112e-01 -2.45175008e-02 -8.43506027e-03 -1.71502102e-02 -3.06769498e-02 -1.60109978e-02 -1.98544100e-01 -1.03154153e-01 +1.94528699e-01 +1.03429966e-01 +1.59209028e-01 +1.03404187e-01 +4.64409702e-02 +3.09209991e-02 +1.92637611e-02 -4.95259315e-02 +6.41056821e-02 +2.01475754e-01 +1.47541035e-02 -8.52218643e-02 -5.90969957e-02 -2.75218021e-02 +9.56417024e-02 +1.50386919e-03 -5.63689731e-02 -1.15118869e-01 +1.88118055e-01 -4.82371673e-02 -8.51200968e-02 +9.57944244e-02 +1.00619726e-01 +1.69404343e-01 -1.26452997e-01 -2.72319224e-02 -9.36791971e-02 +2.15485930e-01 +7.27732480e-02 -1.47624323e-02 -3.87402363e-02 +4.16946821e-02 -1.79462105e-01 +7.05682114e-02 -8.73282645e-03 -3.38646164e-03 +9.64622572e-02 +2.33254313e-01 +1.79967675e-02 +1.30908847e-01 +1.43993506e-02 -4.15660925e-02 +1.09763563e-01 +2.03094911e-02 -2.13473514e-01 +1.98621564e-02 +6.10051826e-02 -9.61967334e-02 +1.49236545e-01 -1.36085168e-01 -1.38850003e-01 -8.47172141e-02 -5.14030866e-02 -1.16615281e-01 +1.63088903e-01 -5.27329333e-02 +1.47467226e-01 -1.76365212e-01 -4.71562631e-02 +2.39444047e-01 -4.20058407e-02 +8.89705867e-02 -1.35451928e-01 -2.04664506e-02 -6.33934438e-02 +1.01547271e-01 -1.52652383e-01 +8.83465856e-02 -3.97411101e-02 -1.39248103e-01 -2.22466454e-01 -1.60964504e-02 -7.88751394e-02 +6.69594109e-02 -1.28334150e-01 +1.09485231e-01 +2.90683843e-02 +8.29384848e-02 +6.06520940e-03 -2.70986799e-02 +1.96523413e-01 -8.76318663e-02 -1.84998345e-02 +8.65358263e-02 -1.31746024e-01 +1.87404111e-01 +3.07507124e-02 -1.90380979e-02 -9.48737003e-03 +6.10234253e-02 -1.58059653e-02 +1.93402514e-01 +1.08991325e-01 -3.88394925e-03 +3.36466283e-02 -8.55961442e-03 +8.78703594e-02 -7.82781392e-02 -6.57888874e-02 +1.68713108e-01 -1.59957290e-01 +1.50022790e-01 -2.18599975e-01 -1.35263309e-01 -1.70042843e-01 +1.94282867e-02 +2.44263500e-01 -2.35528991e-01 +6.68721497e-02 -7.44654313e-02 +2.33152092e-01 -6.83851615e-02 -1.66902661e-01 -1.87286735e-01 -1.07409814e-02 +1.35782929e-02 +1.11422777e-01 +3.17903638e-01 +3.18275653e-02 +9.75643322e-02 -2.85551138e-02 -1.27055142e-02 +1.86859980e-01 -8.81588459e-03 -1.50153385e-02 -1.29429892e-01 +2.41618633e-01 +2.12855920e-01 -2.60754302e-03 +9.23555046e-02 +1.77763462e-01 -5.91454916e-02 +1.72084033e-01 -2.25827679e-01 -1.14687882e-01 -1.68768659e-01 -3.90535668e-02 -3.36000770e-02 -7.05187544e-02 -3.06209326e-02 -7.61656016e-02 -1.04949363e-01 +6.57100528e-02 -6.71524182e-02 +1.12174287e-01 +1.13233730e-01 -2.09977310e-02 +9.71455276e-02 +3.79483849e-02 -8.86634365e-02 -1.75274581e-01 -1.39130980e-01 -2.94300877e-02 +1.81337476e-01 +6.00331239e-02 +1.28478065e-01 +5.90531565e-02 -1.59853444e-01 +1.17900446e-01 +4.61023077e-02 +1.44322038e-01 -1.17798448e-01 +1.66619062e-01 +5.93899786e-02 +1.19493365e-01 +1.56102747e-01 -4.61749770e-02 +6.13572896e-02 -1.31638363e-01 -2.11159468e-01 -3.48961167e-02 -1.39758781e-01 -1.60719261e-01 +1.35293812e-01 -7.94480368e-02 +2.49989349e-02 +1.80885732e-01 -1.80583596e-01 +1.81941614e-01 +3.37577723e-02 -6.49876893e-02 -1.48121670e-01 +1.31298855e-01 -1.70266747e-01 +4.74581160e-02 +1.47611648e-01 -1.99614093e-01 +7.67413080e-02 -1.22947343e-01 +1.00160010e-01 +7.36841336e-02 +7.76146725e-02 -3.35553288e-02 -8.11198875e-02 +1.91594139e-01 +9.69635546e-02 -1.33681193e-01 +9.62541904e-03 +1.02584615e-01 -5.98972887e-02 +3.12111210e-02 +3.08314972e-02 +5.31919263e-02 -1.96017921e-01 +1.02144822e-01 -3.30821685e-02 +5.98554090e-02 -9.58494395e-02 +1.12544268e-01 +6.91276863e-02 +1.22718573e-01 -9.88522694e-02 +1.20276704e-01 +1.36070535e-01 -1.93284065e-01 -1.18947364e-01 -1.62300855e-01 +1.40571937e-01 +7.52367079e-02 +2.89549194e-02 -8.54833052e-02 +3.83281596e-02 -1.76899910e-01 +1.64272040e-01 -7.13555962e-02 -1.90298274e-01 +1.80830762e-01 -1.89283371e-01 +1.38636887e-01 -1.02235302e-01 -2.25502044e-01 -1.65758476e-01 -2.70036459e-01 -7.08684474e-02 +1.77434877e-01 -2.39382789e-01 +2.77081225e-02 -3.13782692e-02 +4.18105088e-02 +1.81677669e-01 +3.33632492e-02 +1.68561921e-01 -1.61827058e-01 -2.21283317e-01 +4.26533706e-02 +3.14534977e-02 +6.82346523e-02 +8.51340517e-02 -8.28852952e-02 +2.05064900e-02 +3.57540585e-02 -2.48597234e-01 -1.32913411e-01 +7.08284974e-02 -2.04041600e-01 -4.07010019e-02 -1.92980886e-01 -1.16564438e-01 +1.59529641e-01 +7.15485588e-02 -2.91808963e-01 +1.27754644e-01 +1.01716727e-01 +1.48522919e-02 -1.10954508e-01 -2.03371286e-01 -7.79244211e-03 -3.11821997e-02 +1.78227916e-01 -1.23519160e-01 +1.36391968e-01 +1.18466340e-01 -5.76424077e-02 +1.77330539e-01 +6.18232749e-02 +3.35487165e-02 -9.30371657e-02 +7.42826909e-02 -9.50563550e-02 +1.10498004e-01 -1.44242810e-03 +1.27709478e-01 -2.89273113e-02 -1.86385587e-01 -2.87931859e-02 -1.07589088e-01 +1.13258660e-01 +1.46221202e-02 +8.39694738e-02 -1.01043515e-01 -1.09297030e-01 +3.24535817e-02 -8.33658651e-02 +1.49825230e-01 +1.31013915e-01 +1.05500810e-01 +2.10347958e-02 -1.49894044e-01 -1.28228754e-01 -7.52948271e-03 +1.59445137e-01 +7.26047009e-02 -1.44926533e-01 +2.64679873e-03 -1.35594428e-01 +7.81797320e-02 +1.70727253e-01 +1.89971477e-02 +4.61065099e-02 +1.50291964e-01 -1.04728729e-01 +2.13512450e-01 +2.24287268e-02 +5.25973924e-02 -1.56572670e-01 +1.84770688e-01 -1.77828446e-02 +1.61959097e-01 +6.04216456e-02 +1.74126685e-01 -1.71639830e-01 +1.04142524e-01 +6.33722544e-02 -1.51194021e-01 +1.48003519e-01 -6.36554435e-02 -5.05719110e-02 -1.24848001e-01 -1.38035074e-01 -8.47268030e-02 +1.55428767e-01 -1.36889890e-01 +3.83231118e-02 +8.60771388e-02 -7.05230907e-02 +4.50862311e-02 -4.80515324e-02 +5.44309989e-02 -1.47305965e-01 -1.15744345e-01 -6.08971678e-02 +9.27938893e-03 -1.15926258e-01 -9.81257260e-02 -2.08977044e-01 +1.21677548e-01 +1.92214310e-01 -8.45021829e-02 -2.24865088e-03 +9.99200195e-02 +1.22986495e-01 +1.48139760e-01 +9.28006396e-02 -2.35422283e-01 +2.01873556e-02 +1.40424743e-01 -4.53448519e-02 -1.07232563e-01 +1.63194612e-01 +6.99390769e-02 +5.69451787e-02 -1.12298973e-01 +4.50826809e-02 +8.26041102e-02 +1.50821164e-01 +6.54679432e-04 +1.23323478e-01 +9.42778215e-02 -1.31610304e-01 +1.45115599e-01 +1.80872396e-01 -6.36935011e-02 +2.41629891e-02 -1.87167063e-01 -2.23324478e-01 -2.51596887e-02 -1.41607255e-01 -1.39827924e-02 -1.56227231e-01 -8.54711682e-02 -2.11480409e-01 -1.28167167e-01 +7.03438818e-02 +1.11544885e-01 +1.41957119e-01 +2.11880848e-01 +1.91953972e-01 -2.30610296e-02 -7.16353878e-02 +7.36112967e-02 +1.97207943e-01 -7.35076889e-02 -1.02411069e-01 +8.39627385e-02 +6.56907856e-02 +1.69405118e-01 -2.21515015e-01 -1.05054408e-01 +6.73323646e-02 -1.82658762e-01 +1.65766805e-01 +1.14817489e-02 +9.72099975e-02 +1.77797154e-01 -1.71524845e-02 +5.26054949e-02 +8.94677360e-03 -1.32142216e-01 +1.66225940e-01 -8.95277411e-02 -1.99795067e-01 -1.98686689e-01 +1.50662765e-01 +3.62620391e-02 +1.19826175e-01 -6.23886995e-02 -2.10424349e-01 -1.66155964e-01 +1.46424964e-01 +8.08604155e-03 -1.75677374e-01 -1.06051944e-01 -1.52518610e-02 +1.40706539e-01 -6.00887612e-02 +7.75114074e-02 +1.04922593e-01 -1.56113729e-01 -4.96923178e-02 +1.21372364e-01 -1.82687826e-02 +3.33883874e-02 +1.62984222e-01 -1.77323312e-01 -3.07371132e-02 +1.56899050e-01 +5.22683337e-02 -7.95674250e-02 +1.36766702e-01 -1.49013892e-01 +2.38209330e-02 -1.26595512e-01 -6.77683726e-02 +1.04205146e-01 -5.82098104e-02 -9.93458852e-02 +5.89046590e-02 -3.47608440e-02 -1.88564897e-01 -5.03741018e-02 +1.32284947e-02 -3.92545909e-02 -1.95888013e-01 +3.59112769e-02 -1.33902520e-01 -3.38136554e-02 -5.09759691e-03 -1.54955117e-02 +1.69499218e-01 +5.28742969e-02 +1.89276524e-02 -4.12198193e-02 -1.61255658e-01 -1.35265633e-01 -1.90513954e-01 -2.36249298e-01 -1.55057982e-02 +6.36214986e-02 +7.89996684e-02 -1.81502298e-01 -7.91131482e-02 +5.40857725e-02 -4.64782678e-02 +4.19636071e-03 -9.52925235e-02 +1.58845186e-01 -2.31539100e-01 -6.82938322e-02 +5.44446632e-02 +2.46845838e-03 +1.09782293e-01 -2.09117875e-01 +9.62377638e-02 +1.05309151e-01 +1.61501050e-01 -6.59987330e-02 -5.29501140e-02 +4.29597944e-02 -1.88444126e-02 +1.17043883e-01 +1.67750254e-01 -1.21098384e-01 -1.68815013e-02 -1.53629437e-01 +1.32562250e-01 +1.90380171e-01 -1.09669872e-01 -2.13326722e-01 +9.33739096e-02 -1.74585149e-01 -4.31928411e-02 +9.56383646e-02 -8.90455842e-02 +2.41366215e-02 +2.53280759e-01 -5.32279909e-02 -8.75745639e-02 -2.84905225e-01 -6.12402782e-02 -2.24614903e-01 -2.69683115e-02 -3.52828018e-02 +1.54952526e-01 +4.43832502e-02 +3.05283993e-01 +2.88405456e-02 -1.95096999e-01 -2.79470295e-01 -1.84114203e-01 -2.20928639e-01 -3.72087210e-02 +3.64549793e-02 -2.90733367e-01 +6.06454983e-02 -5.87290153e-02 +9.60092470e-02 +1.77333072e-01 -2.09445834e-01 -5.90498261e-02 +8.23698044e-02 +3.13056186e-02 -4.84664850e-02 -7.40999803e-02 -3.57154012e-02 +1.27249837e-01 +1.19107790e-01 +1.85496628e-01 +7.65639022e-02 -2.05783263e-01 +9.47654098e-02 -9.86299589e-02 -1.84710413e-01 +3.19485515e-02 -9.74874347e-02 -9.77758020e-02 -1.99452247e-02 +1.89199254e-01 -7.67067894e-02 +5.80899827e-02 -8.95564631e-02 -1.24786720e-01 -2.15238824e-01 +1.35252252e-01 -1.06227510e-01 +6.64323792e-02 +4.04201299e-02 -3.17866765e-02 -3.90376523e-02 -9.04722288e-02 +5.03034294e-02 +2.25038573e-01 -2.22305372e-01 -1.69907860e-03 +9.21413526e-02 +1.28320366e-01 +1.51855312e-03 +1.34062111e-01 +1.85361534e-01 +1.42504245e-01 -9.13910046e-02 -1.38462678e-01 -7.83051997e-02 +1.83366507e-01 +1.02997445e-01 -9.55990553e-02 -5.61628528e-02 -1.30846631e-02 -6.13610931e-02 -1.61626637e-01 -1.17320962e-01 -4.10069488e-02 -1.53505117e-01 -1.12934120e-01 -6.11071549e-02 -8.07558224e-02 +2.85598449e-02 +7.30500296e-02 +2.92285327e-02 +1.29591106e-02 -1.91446871e-01 -7.49609247e-02 -3.57371829e-02 +4.86587435e-01 -2.73088872e-01 -6.57404438e-02 -1.69276327e-01 +2.74423897e-01 +1.32717401e-01 -3.37671563e-02 +2.64535218e-01 +2.74716377e-01 +1.15899086e-01 -1.56378791e-01 +3.69731158e-01 -2.24862367e-01 -9.04415324e-02 +2.04905584e-01 -9.69699621e-02 -1.08602598e-01 -6.86777234e-02 +1.81093499e-01 +2.26318851e-01 -9.67369229e-02 +1.40342489e-01 -5.69989346e-02 +1.37106031e-01 -8.72313827e-02 -5.38974479e-02 +8.63259360e-02 -2.04800352e-01 +7.65571967e-02 -1.07658260e-01 +9.25552547e-02 +1.45333350e-01 +7.15727638e-03 +5.87880239e-02 -3.21557581e-01 -1.25971600e-01 +2.44553626e-01 +2.09889933e-01 +1.52029127e-01 -3.61725464e-02 +2.24864885e-01 +1.48378044e-01 +6.03123493e-02 -3.48103493e-01 +3.67905855e-01 -2.77339537e-02 +1.52497843e-01 +9.00833532e-02 -2.95775086e-01 -2.52813637e-01 +2.35988393e-01 -2.73623019e-01 -2.80714948e-02 -2.59565085e-01 -1.50809869e-01 -2.46199608e-01 -3.03599179e-01 -3.21710631e-02 -8.26220810e-02 -3.26192737e-01 -2.09315702e-01 -7.35546947e-02 +4.15355675e-02 +8.08337852e-02 +1.54654086e-01 -1.25711724e-01 +1.21212691e-01 -1.07988983e-01 +1.06583536e-01 -9.37188417e-02 +2.58717034e-02 +9.62173715e-02 +1.49414673e-01 +1.37903646e-01 +4.76061925e-02 -9.24127027e-02 +3.53883021e-02 +4.87681618e-03 +7.53318192e-03 -1.59641102e-01 -1.74412519e-01 +1.16552949e-01 +1.22310556e-01 -1.49271160e-01 +1.05513960e-01 +1.96370170e-01 +1.65754631e-01 -1.74750149e-01 -7.40923733e-02 +1.82325505e-02 -1.76159143e-02 -1.33575067e-01 +8.90740231e-02 +1.06610171e-01 -1.60225138e-01 +7.50699416e-02 +2.16006339e-01 -1.58545945e-03 +1.35904923e-01 +2.67970152e-02 -1.07443780e-01 -5.61894365e-02 -1.51100084e-01 +9.57768410e-02 +8.68262723e-02 -1.10669425e-02 -1.43780574e-01 +1.15568444e-01 +1.57719076e-01 -1.13570407e-01 -6.92828670e-02 -2.07695797e-01 +1.35428280e-01 +7.02005774e-02 -9.82145667e-02 -1.17214963e-01 -2.92666145e-02 +9.35830399e-02 +5.56034036e-02 +2.02745516e-02 -5.65766990e-02 +3.92278321e-02 +1.74364656e-01 +7.97341987e-02 +7.30906576e-02 -1.82748690e-01 -1.78030595e-01 -1.86055884e-01 +6.68516681e-02 -2.30957270e-01 +8.14936683e-02 -1.21314511e-01 +9.88529697e-02 -2.00934280e-02 -1.08124413e-01 +3.84628735e-02 +1.98960468e-01 -2.22613458e-02 -4.69986722e-03 +5.08646071e-02 +4.58333977e-02 +3.80422398e-02 +5.51502369e-02 +8.05181116e-02 -3.56599092e-02 +1.03701018e-01 -1.52276352e-01 -3.94964516e-02 +1.18453369e-01 +1.00639321e-01 -1.65752247e-01 +3.23687284e-03 -1.62142992e-01 -7.57969171e-02 +6.07749857e-02 +1.07744848e-02 +2.05972046e-01 +6.67036548e-02 +9.19682607e-02 +2.24587247e-01 -1.65576994e-01 +3.07025332e-02 -1.64377332e-01 -7.22008105e-03 +7.02419207e-02 +1.36196479e-01 +7.80113712e-02 +2.35446200e-01 +1.45090237e-01 -1.19794063e-01 -7.78626129e-02 -3.05434138e-01 -9.62879285e-02 +1.30470376e-02 +4.86277789e-02 -1.48169041e-01 -2.37307116e-01 -8.13540742e-02 +2.33304188e-01 +4.51059453e-03 +9.71088931e-03 +2.17921147e-03 +1.19514011e-01 -1.72153294e-01 -2.12874427e-01 -1.30713090e-01 +3.85767631e-02 -2.04467103e-01 +1.25205979e-01 +1.87507227e-01 +1.71404004e-01 -2.44784337e-02 -7.51912454e-03 +3.39145735e-02 +1.04423821e-01 -1.83566853e-01 +3.56741175e-02 +2.63157096e-02 -1.58299711e-02 +5.70165701e-02 +1.57745570e-01 -9.77448225e-02 -4.94130403e-02 +1.06300227e-01 -1.30545661e-01 -1.68708250e-01 +2.27824003e-02 +5.93104251e-02 +6.79704994e-02 +4.25117388e-02 +3.80494818e-02 -1.92166671e-01 -1.19601220e-01 +1.14842176e-01 +1.38094679e-01 -1.80944845e-01 -8.54061246e-02 +1.41195608e-02 -1.81931332e-01 +4.58293445e-02 -3.39279436e-02 -1.64412484e-02 +8.61517787e-02 +6.52618930e-02 +1.75067037e-01 -1.58258945e-01 -4.41525094e-02 +4.91327345e-02 +7.34509602e-02 -7.09032267e-02 -5.98318316e-02 -1.79974288e-01 +1.31226838e-01 +4.92238328e-02 +1.90161645e-01 -3.00047826e-02 -9.91124213e-02 +8.56634900e-02 -6.30616695e-02 -4.18134592e-02 -2.82265246e-02 -1.64138049e-01 +1.79230794e-01 -8.14200193e-02 +2.98894681e-02 -1.26717895e-01 -1.92982718e-01 +1.84833497e-01 +1.42710760e-01 +1.61188692e-01 +1.24766409e-01 +1.43080145e-01 -1.78597882e-01 -1.74034819e-01 +1.08051874e-01 +2.22106457e-01 +9.89426076e-02 +1.68011665e-01 +1.48178339e-01 -2.02292763e-02 -1.67982474e-01 -1.70641735e-01 -1.09929323e-01 -1.70483023e-01 -1.48286368e-03 +1.18011728e-01 +1.96849942e-01 -1.35573238e-01 +1.93491176e-01 -1.72762752e-01 +3.79093550e-02 -2.69523989e-02 -4.49276641e-02 +1.39571190e-01 -1.61787078e-01 -2.20029205e-01 +3.10251899e-02 -1.45183370e-01 +6.81177974e-02 +9.09864530e-02 -5.27583808e-02 -4.00209390e-02 -1.04201332e-01 +6.20602863e-03 +8.53568092e-02 +1.17792226e-01 -1.35243028e-01 +7.00128675e-02 -1.37703851e-01 +1.02319561e-01 +2.91312747e-02 -1.11361556e-01 -1.36829972e-01 -7.97377825e-02 -9.30620134e-02 -7.21769407e-02 +1.82528093e-01 +4.73804176e-02 -2.60478139e-01 -1.69116288e-01 -7.42633408e-03 -6.46635368e-02 -3.93895507e-02 +5.19772395e-02 -1.32254705e-01 -1.92469552e-01 +1.35197625e-01 +9.82202590e-02 -2.43558824e-01 -2.04436705e-01 +4.13736813e-02 +8.75492916e-02 -1.83070272e-01 +2.01395363e-01 +1.25442799e-02 +5.60179986e-02 +1.19092301e-01 +1.19504370e-01 -1.13693587e-02 +2.32570581e-02 +1.79981872e-01 +1.92488462e-01 +1.40630886e-01 +8.23082328e-02 -6.10149726e-02 +5.59167080e-02 +1.20993301e-01 -1.53570892e-02 +8.20270553e-02 -2.81773824e-02 -1.37445495e-01 +8.17372575e-02 +2.21353155e-02 -8.30406249e-02 -4.86126803e-02 +9.34176445e-02 +2.06009656e-01 +1.67633995e-01 -4.67401333e-02 +1.04504347e-01 +1.75997913e-01 -1.21253707e-01 +1.39678702e-01 +2.14961410e-01 +1.38556466e-01 +2.41083026e-01 -9.55507234e-02 -6.52788486e-03 +1.51990056e-01 +2.64759234e-04 -1.04171880e-01 -6.19149692e-02 +2.69574746e-02 -2.66360287e-02 -1.23359121e-01 -5.52683771e-02 -1.42064184e-01 +1.54657349e-01 +2.03214008e-02 +9.25791264e-02 +2.19796430e-02 -1.88799471e-01 -4.37120423e-02 +1.32928446e-01 +8.10480416e-02 +1.99555412e-01 -1.27894385e-02 -1.18538082e-01 +1.08579241e-01 -1.06954820e-01 -1.53971419e-01 -1.51432082e-01 +1.71141222e-01 +1.23365194e-01 +9.56248641e-02 +1.55849680e-01 +4.26879749e-02 -8.32831021e-03 -1.57283425e-01 +1.76246107e-01 -2.78760605e-02 +2.62374878e-01 +2.35088076e-02 +2.20479459e-01 -2.31256485e-01 +2.64473736e-01 -2.85925679e-02 +1.84501275e-01 +2.13870361e-01 -8.74164701e-02 +5.14502078e-02 -1.63882017e-01 -1.18197531e-01 -2.84218621e-02 -1.10977709e-01 -4.55224738e-02 +2.68750429e-01 -8.83909166e-02 -1.12998426e-01 +1.25538379e-01 +8.52342173e-02 +2.34490000e-02 +7.32307434e-02 +1.16304584e-01 -5.93747869e-02 -4.75125164e-02 -4.02845964e-02 -5.55898882e-02 +1.38035923e-01 +2.33604819e-01 +1.08621225e-01 +3.56640257e-02 -2.21759915e-01 -2.40446199e-02 -2.21227422e-01 -9.14552063e-02 +5.04969172e-02 +1.92203037e-02 +2.34405577e-01 +2.20430084e-02 -1.91108793e-01 -3.72272372e-01 -2.14108631e-01 +8.73165056e-02 -1.57722175e-01 -1.43804610e-01 +7.20584244e-02 +1.39718011e-01 -1.70635939e-01 -2.23725900e-01 +5.23011759e-02 -7.33959302e-02 +2.16382474e-01 +1.70436025e-01 +2.74470225e-02 +2.71971405e-01 +1.62359208e-01 +1.24445885e-01 -6.79220483e-02 +2.74693877e-01 +4.86596189e-02 +6.84957430e-02 +2.64121778e-02 +1.48868099e-01 -3.50412689e-02 -6.20533153e-02 -1.85122918e-02 +8.03904831e-02 -9.44135711e-02 -1.14761025e-01 +8.93958786e-04 +9.04617533e-02 -9.94902253e-02 -7.89877698e-02 -4.02866825e-02 -5.29993698e-02 -8.59730039e-03 +5.02352882e-03 -1.59125745e-01 +1.93467274e-01 -2.05491185e-01 +1.36854053e-01 -1.70858949e-01 -6.27348647e-02 +1.07139125e-01 +3.40662599e-02 +3.83944474e-02 -1.82290584e-01 -5.14016263e-02 +8.58011767e-02 -1.79624930e-02 +1.98682807e-02 -6.50701970e-02 -2.07585454e-01 +5.79678565e-02 +4.84648235e-02 -1.14432447e-01 +3.00327260e-02 +5.12437783e-02 +1.37318209e-01 +2.06204355e-01 +4.34333645e-02 -2.32168939e-02 +5.97000942e-02 -5.39071746e-02 +1.09776996e-01 -1.84500486e-01 +1.22502960e-01 -6.26193881e-02 -1.74046591e-01 -7.48243881e-03 -1.33723882e-03 -1.61014423e-01 -1.26651630e-01 +1.53496355e-01 +1.35069042e-01 +8.40139203e-03 -3.62731665e-02 +1.55474558e-01 -7.55403116e-02 +8.83118436e-02 -4.55912091e-02 -2.00953096e-01 -8.48593488e-02 -4.12662737e-02 -1.43184394e-01 -1.28327459e-01 +1.50871277e-01 +5.45200743e-02 -7.21865669e-02 -1.59246311e-01 -7.88386017e-02 +6.52662814e-02 -2.19667763e-01 +1.65442109e-01 +1.10697523e-01 +4.24760859e-04 +1.06246211e-01 -1.22624867e-01 +2.08604217e-01 -6.68048859e-02 +1.15483828e-01 -1.24938026e-01 +9.13525559e-03 -7.63609111e-02 +3.58881615e-02 +7.90810287e-02 -1.99550241e-01 -1.09371960e-01 -1.63639069e-01 +8.09777379e-02 -1.14056528e-01 -1.70949504e-01 -5.63693792e-02 -1.17855117e-01 -1.37949228e-01 +8.49571750e-02 +6.26861304e-02 -1.57308400e-01 -1.74034789e-01 -1.35942280e-01 +7.72913024e-02 